%YAML:1.0
---
opencv_ml_svm:
   format: 3
   svmType: C_SVC
   kernel:
      type: INTER
      gamma: 1.
   C: 1.
   term_criteria: { epsilon:1.1920928955078125e-07, iterations:1000 }
   var_count: 64
   class_count: 12
   class_labels: !!opencv-matrix
      rows: 12
      cols: 1
      dt: i
      data: [ 0, 1, 2, 3, 4, 5, 6, 7, 8, 9, 10, 11 ]
   sv_total: 832
   support_vectors:
      - [ 1.71263809e+04, 2.16374683e+03, 2.28078931e+03, 2.41914233e+03,
          0., 0., 3.00203809e+03, 1.61276160e+03, 7.30552344e+03,
          5.94555518e+03, 0., 8.06380798e+02, 0., 0., 0., 0.,
          1.50382852e+04, 8.77202930e+03, 0., 3.22552319e+03,
          1.61276160e+03, 2.28078931e+03, 8.10930176e+03, 2.41914233e+03,
          9.77276172e+03, 4.74663916e+03, 1.14039465e+03, 1.61276160e+03,
          1.13374277e+04, 2.28078931e+03, 1.38207725e+04, 7.25742725e+03,
          8.96638086e+03, 1.44249780e+03, 0., 8.06380798e+02,
          2.41914233e+03, 0., 4.32749365e+03, 2.41914233e+03,
          1.18127617e+04, 2.88499561e+03, 0., 1.61276160e+03,
          1.66991426e+04, 0., 4.32749365e+03, 2.41914233e+03,
          1.46591426e+04, 5.40936719e+03, 4.56157861e+03, 5.64466553e+03,
          2.52382852e+04, 2.28078931e+03, 9.37623633e+03, 3.22552319e+03,
          2.64238086e+04, 1.49026455e+04, 2.28078931e+03, 8.06380811e+03,
          2.40046660e+04, 4.56157861e+03, 8.65498730e+03, 2.41914233e+03 ]
      - [ 4.45914258e+03, 5.04874268e+03, 2.28078931e+03, 4.03190405e+03,
          4080., 0., 0., 0., 8.06380798e+02, 1.80312231e+03,
          1.14039465e+03, 1.61276160e+03, 0., 0., 0., 0., 2.57482852e+04,
          7.69015625e+03, 0., 4.03190405e+03, 4.67276172e+03,
          2.28078931e+03, 6.60828271e+03, 1.61276160e+03, 2.36255234e+04,
          5.88703418e+03, 0., 1.61276160e+03, 1.13374277e+04,
          2.28078931e+03, 1.53217910e+04, 8.06380811e+03, 0., 0., 0., 0.,
          2.28191426e+04, 0., 5.82851270e+03, 3.22552319e+03, 2040.,
          3.60624451e+02, 1.14039465e+03, 8.06380798e+02, 1.38527617e+04,
          0., 2.88499561e+03, 1.61276160e+03, 2.41355234e+04,
          6.85186475e+03, 4.56157861e+03, 6.45104639e+03, 2.72782852e+04,
          0., 1.30410020e+04, 5.64466553e+03, 3.33501875e+04,
          1.34601475e+04, 5.70197314e+03, 8.06380811e+03, 2.66374277e+04,
          5.70197314e+03, 7.21248926e+03, 3.22552319e+03 ]
      - [ 1.58927617e+04, 3.60624463e+03, 2.28078931e+03, 3.22552319e+03,
          0., 0., 1.50101904e+03, 8.06380798e+02, 7.73276172e+03,
          4.80516064e+03, 1.14039465e+03, 8.06380798e+02, 0., 0., 0., 0.,
          1.70782852e+04, 8.77202930e+03, 0., 3.22552319e+03,
          2.41914233e+03, 3.42118408e+03, 6.60828271e+03, 2.41914233e+03,
          1.23227617e+04, 4.74663916e+03, 1.14039465e+03, 1.61276160e+03,
          1.13374268e+04, 2.28078931e+03, 1.38207725e+04, 7.25742725e+03,
          8160., 0., 0., 0., 3.22552319e+03, 0., 5.76999121e+03,
          3.22552319e+03, 1.10063809e+04, 1.50101904e+03, 0., 0.,
          1.66991426e+04, 0., 4.32749365e+03, 2.41914233e+03,
          1.21919043e+04, 8.35288379e+03, 4.56157861e+03, 6.45104639e+03,
          2.72782852e+04, 0., 8.65498730e+03, 4.83828467e+03,
          2.40046660e+04, 1.88695156e+04, 5.70197314e+03, 8.06380811e+03,
          2.40046660e+04, 2.28078931e+03, 9.43475781e+03, 4.83828467e+03 ]
      - [ 1.58927617e+04, 3.60624463e+03, 2.28078931e+03, 3.22552319e+03,
          0., 0., 1.50101904e+03, 8.06380798e+02, 7.73276172e+03,
          3.30414136e+03, 1.14039465e+03, 1.61276160e+03, 0., 0., 0., 0.,
          1.54655234e+04, 1.06336729e+04, 1.14039465e+03, 1.61276160e+03,
          5.69276172e+03, 0., 5.88703418e+03, 3.22552319e+03,
          1.26191426e+04, 4.80516064e+03, 1.14039465e+03, 1.61276160e+03,
          1.01519043e+04, 1.14039465e+03, 1.78461621e+04, 5.64466553e+03,
          8160., 0., 0., 0., 3.22552319e+03, 1.14039465e+03,
          6.13061572e+03, 2.41914233e+03, 1.10063809e+04, 1.80312231e+03,
          1.14039465e+03, 1.61276160e+03, 1.46591426e+04, 0.,
          4.32749365e+03, 2.41914233e+03, 1.54655234e+04, 6.85186475e+03,
          4.56157861e+03, 6.45104639e+03, 2.52382852e+04, 1.14039465e+03,
          1.05166309e+04, 4.83828467e+03, 2.43838086e+04, 1.67057676e+04,
          5.70197314e+03, 8.87018848e+03, 1.80501895e+04, 1.14039463e+04,
          5.04874219e+03, 8.06380798e+02 ]
      - [ 0., 1.00974854e+04, 0., 0., 0., 0., 0., 0., 0., 0., 0., 0., 0.,
          0., 0., 0., 3.25919043e+04, 1.02730488e+04, 0., 1.61276160e+03,
          0., 0., 5.88703418e+03, 1.61276160e+03, 2.20127617e+04,
          5.88703418e+03, 0., 0., 0., 0., 1.91621211e+04, 5.64466553e+03,
          0., 3.60624451e+02, 1.14039465e+03, 8.06380798e+02,
          1.30463809e+04, 1.14039465e+03, 1.04581094e+04, 0., 0.,
          3.60624451e+02, 0., 8.06380798e+02, 4.88638086e+03, 0.,
          3.60624451e+02, 0., 1.95455234e+04, 1.53803125e+04,
          2.28078931e+03, 1.61276160e+03, 1.66510469e+04, 6.84236816e+03,
          1.25538379e+04, 5.64466553e+03, 3.01246660e+04, 3.10627285e+04,
          2.28078931e+03, 8.06380798e+02, 8.11190381e+03, 6.84236816e+03,
          1.05751523e+04, 1.61276160e+03 ]
      - [ 1.34255234e+04, 7.74867773e+03, 1.14039465e+03, 1.61276160e+03,
          0., 0., 0., 0., 6.49914258e+03, 4.44453613e+03, 0.,
          8.06380798e+02, 0., 0., 0., 0., 1.75055234e+04, 7.74867773e+03,
          1.14039465e+03, 1.61276160e+03, 2.41914233e+03, 2.28078931e+03,
          5.10726367e+03, 1.61276160e+03, 1.10063809e+04, 5.82851270e+03,
          0., 0., 7.68466553e+03, 3.42118408e+03, 1.86844531e+04,
          7.25742725e+03, 5100., 0., 0., 0., 0., 0., 8.88907227e+03,
          3.22552319e+03, 10200., 0., 0., 0., 1.56791426e+04, 0.,
          2.88499561e+03, 2.41914233e+03, 9.77276172e+03, 1.00974854e+04,
          4.56157861e+03, 4.83828467e+03, 1.66991426e+04, 3.42118408e+03,
          9.97094531e+03, 3.22552319e+03, 2.31982852e+04, 1.97078066e+04,
          2.28078931e+03, 3.22552319e+03, 2.64719043e+04, 4.56157861e+03,
          2.88499561e+03, 8.06380798e+02 ]
      - [ 1.29982852e+04, 8.88907227e+03, 0., 1.61276160e+03, 0., 0., 0.,
          0., 6.49914258e+03, 4.44453613e+03, 0., 8.06380798e+02, 0., 0.,
          0., 0., 1.75055234e+04, 7.74867773e+03, 1.14039465e+03,
          1.61276160e+03, 1.61276160e+03, 1.14039465e+03, 7.63163477e+03,
          1.61276160e+03, 1.10063809e+04, 5.82851270e+03, 0., 0.,
          5.64466553e+03, 5.70197314e+03, 1.94057031e+04, 5.64466553e+03,
          4.88638086e+03, 3.60624451e+02, 0., 0., 510., 0.,
          8.88907227e+03, 3.22552319e+03, 8.96638086e+03, 1.50101904e+03,
          0., 0., 1.56791426e+04, 0., 2.88499561e+03, 2.41914233e+03,
          1.26191426e+04, 9.07413281e+03, 2.28078931e+03, 4.03190405e+03,
          1.92491426e+04, 3.42118408e+03, 9.97094531e+03, 3.22552319e+03,
          2.60446660e+04, 1.46590635e+04, 4.56157861e+03, 5.64466553e+03,
          2.31982852e+04, 5.70197314e+03, 3.24562012e+03, 8.06380798e+02 ]
      - [ 6.07190381e+03, 1.20761709e+04, 1.14039465e+03, 2.41914233e+03,
          4080., 0., 0., 0., 8.06380798e+02, 5.82851270e+03, 0., 0., 0.,
          0., 0., 0., 2.36255234e+04, 7.74867773e+03, 1.14039465e+03,
          1.61276160e+03, 8.06380798e+02, 1.14039465e+03, 9.13265430e+03,
          1.61276160e+03, 1.46591426e+04, 4.44453613e+03, 0.,
          8.06380798e+02, 7.25742725e+03, 4.56157861e+03, 1.75440586e+04,
          7.25742725e+03, 1020., 3.60624451e+02, 2.28078931e+03,
          8.06380798e+02, 1.07927617e+04, 3.42118408e+03, 1.10528193e+04,
          3.22552319e+03, 5100., 3.60624451e+02, 1.14039465e+03,
          8.06380798e+02, 1.26191426e+04, 0., 4.32749365e+03,
          2.41914233e+03, 1.75055234e+04, 8.35288379e+03, 3.42118408e+03,
          4.83828467e+03, 1.87391426e+04, 3.42118408e+03, 9.97094531e+03,
          3.22552319e+03, 2.72782852e+04, 1.76025801e+04, 9.12315723e+03,
          7.25742725e+03, 1.83119043e+04, 4.56157861e+03, 2.88499561e+03,
          8.06380798e+02 ]
      - [ 8.06380798e+02, 6.18913721e+03, 1.14039465e+03, 8.06380798e+02,
          2040., 0., 0., 0., 0., 3.60624451e+02, 0., 0., 0., 0., 0., 0.,
          2.56655234e+04, 1.06336729e+04, 1.14039465e+03, 1.61276160e+03,
          2.84638086e+03, 0., 5.88703418e+03, 2.41914233e+03,
          1.46591426e+04, 9.91242383e+03, 0., 0., 4.03190405e+03,
          3.42118408e+03, 1.56824160e+04, 4.03190405e+03, 0.,
          7.21248901e+02, 2.28078931e+03, 1.61276160e+03, 1.46591426e+04,
          3.42118408e+03, 5.52640918e+03, 1.61276160e+03, 0.,
          1.44249780e+03, 1.14039465e+03, 8.06380798e+02, 8.96638086e+03,
          1.14039465e+03, 1.80312231e+03, 0., 1.34255234e+04,
          1.32165654e+04, 4.56157861e+03, 3.22552319e+03, 1.83119043e+04,
          3.42118408e+03, 2.01269512e+04, 5.64466553e+03, 1.78846660e+04,
          2.63160898e+04, 7.98276270e+03, 6.45104639e+03, 1.58446660e+04,
          6.84236816e+03, 1.37622510e+04, 1.61276160e+03 ]
      - [ 1.61276160e+03, 5.52640918e+03, 3.42118408e+03, 2.41914233e+03,
          0., 0., 0., 0., 0., 3.60624451e+02, 0., 0., 0., 0., 0., 0.,
          2.44319043e+04, 1.02730488e+04, 0., 1.61276160e+03,
          8.06380798e+02, 1.14039465e+03, 6.24765820e+03, 1.61276160e+03,
          1.79327617e+04, 4.38601465e+03, 1.14039465e+03, 1.61276160e+03,
          3.22552319e+03, 4.56157861e+03, 1.61600830e+04, 4.03190405e+03,
          0., 0., 0., 0., 1.91663809e+04, 1.14039465e+03, 7.69015625e+03,
          1.61276160e+03, 0., 1.80312231e+03, 2.28078931e+03,
          1.61276160e+03, 7.73276172e+03, 2.28078931e+03, 2.16374683e+03,
          0., 1.13855234e+04, 1.64036641e+04, 1.14039465e+03,
          1.61276160e+03, 2.19646660e+04, 5.70197314e+03, 1.49611670e+04,
          4.03190405e+03, 1.83119043e+04, 3.20275586e+04, 3.42118408e+03,
          2.41914233e+03, 1.99246660e+04, 7.98276270e+03, 9.97094531e+03,
          3.22552319e+03 ]
      - [ 1.79327617e+04, 3.00203809e+03, 0., 0., 0., 0., 0., 0., 0.,
          3.60624451e+02, 0., 0., 0., 0., 0., 0., 28560., 4.68811816e+03,
          1.14039465e+03, 8.06380798e+02, 4.88638086e+03, 1.14039465e+03,
          7.21248901e+02, 8.06380798e+02, 5.90638086e+03, 0., 0., 0.,
          8.96638086e+03, 0., 2.94351709e+03, 1.61276160e+03, 0., 0., 0.,
          0., 3.43914233e+03, 1.14039465e+03, 5.16578516e+03,
          2.41914233e+03, 1.15163809e+04, 1.44249780e+03, 0.,
          3.22552319e+03, 4.45914258e+03, 0., 3.60624451e+02, 0.,
          1.26191426e+04, 7.69015625e+03, 1.14039465e+03, 1.61276160e+03,
          2.56655234e+04, 3.42118408e+03, 1.38792930e+04, 2.41914233e+03,
          2.95319043e+04, 1.18325889e+04, 5.70197314e+03, 2.41914233e+03,
          1.91182852e+04, 9.12315723e+03, 3.96686914e+03, 8.06380798e+02 ]
      - [ 1.05791426e+04, 4.44453613e+03, 0., 8.06380798e+02, 10200., 0.,
          0., 0., 4.88638086e+03, 1.44249780e+03, 0., 8.06380798e+02, 0.,
          0., 0., 0., 1.81463809e+04, 2.52437109e+03, 3.42118408e+03,
          3.22552319e+03, 7.73276172e+03, 1.14039465e+03, 3.30414136e+03,
          1.61276160e+03, 6.92638086e+03, 1.50101904e+03, 0., 0.,
          1.36391426e+04, 4.56157861e+03, 9.85390332e+03, 1.61276160e+03,
          0., 0., 0., 0., 2.48591426e+04, 2.28078931e+03, 2.16374683e+03,
          8.06380798e+02, 2.84638086e+03, 1.44249780e+03, 0.,
          8.06380798e+02, 2.65200020e+04, 0., 0., 0., 1.38527617e+04,
          8.05078076e+03, 2.28078931e+03, 1.61276160e+03, 2.68510469e+04,
          6.84236816e+03, 1.09942979e+04, 4.03190405e+03, 1.77191426e+04,
          1.41813965e+04, 4.56157861e+03, 3.22552319e+03, 2.17991426e+04,
          2.28078931e+03, 3.66476587e+03, 1.61276160e+03 ]
      - [ 1.26191426e+04, 4.44453613e+03, 0., 8.06380798e+02, 10200., 0.,
          0., 0., 6.92638086e+03, 1.44249780e+03, 0., 8.06380798e+02, 0.,
          0., 0., 0., 1.91663809e+04, 1.44249780e+03, 0., 8.06380798e+02,
          1.50863809e+04, 0., 4.44453613e+03, 2.41914233e+03,
          3.65276172e+03, 3.00203809e+03, 0., 0., 2.40527617e+04,
          2.28078931e+03, 6.60828271e+03, 1.61276160e+03, 0., 0., 0., 0.,
          2.48591445e+04, 2.28078931e+03, 2.16374683e+03, 8.06380798e+02,
          2.84638086e+03, 1.44249780e+03, 0., 8.06380798e+02,
          2.65200020e+04, 0., 0., 0., 8.53914258e+03, 1.20761709e+04,
          1.14039465e+03, 8.06380798e+02, 3.01246660e+04, 4.56157861e+03,
          8.77202930e+03, 4.03190405e+03, 1.83119043e+04, 1.06336729e+04,
          5.70197314e+03, 5.64466553e+03, 2.52863828e+04, 1.14039465e+03,
          9.19117578e+03, 2.41914233e+03 ]
      - [ 2.84638086e+03, 1.44249780e+03, 0., 8.06380798e+02, 6120., 0.,
          0., 0., 0., 0., 0., 0., 0., 0., 0., 0., 2.52863809e+04,
          1.44249780e+03, 0., 8.06380798e+02, 8.96638086e+03, 0.,
          1.44249780e+03, 8.06380798e+02, 1.10063809e+04, 2.16374683e+03,
          2.28078931e+03, 2.41914233e+03, 1.10063809e+04, 0.,
          4.38601465e+03, 1.61276160e+03, 0., 0., 0., 0., 2.12063809e+04,
          0., 1.44249780e+03, 8.06380798e+02, 2040., 0., 0., 0., 0., 0.,
          0., 0., 1.50863809e+04, 3.30414136e+03, 1.14039465e+03,
          8.06380798e+02, 2.89391426e+04, 2.28078931e+03, 8.05078076e+03,
          2.41914233e+03, 1.70782852e+04, 9.97094531e+03, 3.42118408e+03,
          4.03190405e+03, 4.56863828e+04, 1.14039465e+03, 3.30414136e+03,
          8.06380798e+02 ]
      - [ 2.84638086e+03, 1.44249780e+03, 0., 8.06380798e+02, 6120., 0.,
          0., 0., 0., 0., 0., 0., 0., 0., 0., 0., 2.32463809e+04,
          1.44249780e+03, 0., 8.06380798e+02, 8.96638086e+03, 0.,
          1.44249780e+03, 8.06380798e+02, 1.10063809e+04, 1.80312231e+03,
          1.14039465e+03, 1.61276160e+03, 1.13855234e+04, 2.28078931e+03,
          3.60624463e+03, 1.61276160e+03, 0., 0., 0., 0., 2.12063809e+04,
          0., 1.44249780e+03, 8.06380798e+02, 8.06380798e+02,
          1.50101904e+03, 0., 0., 0., 0., 0., 0., 1.50863809e+04,
          3.66476587e+03, 3.42118408e+03, 2.41914233e+03, 2.48591426e+04,
          2.28078931e+03, 8.16782324e+03, 4.03190405e+03, 1.42319043e+04,
          1.21346924e+04, 4.56157861e+03, 5.64466553e+03, 4.01591445e+04,
          2.28078931e+03, 2.16374683e+03, 8.06380798e+02 ]
      - [ 8.06380798e+02, 1.44249780e+03, 0., 8.06380798e+02, 6120., 0.,
          0., 0., 0., 0., 0., 0., 0., 0., 0., 0., 2.52863809e+04,
          1.44249780e+03, 0., 8.06380798e+02, 8.96638086e+03, 0.,
          1.44249780e+03, 8.06380798e+02, 1.10063809e+04, 1.44249780e+03,
          0., 8.06380798e+02, 1.58927617e+04, 0., 2.88499561e+03,
          1.61276160e+03, 0., 0., 0., 0., 2.12063809e+04, 0.,
          1.44249780e+03, 8.06380798e+02, 0., 0., 0., 0., 0., 0., 0., 0.,
          1.50863809e+04, 4.02539038e+03, 3.42118408e+03, 2.41914233e+03,
          2.48591426e+04, 2.28078931e+03, 8.16782324e+03, 4.03190405e+03,
          1.50382852e+04, 1.21932139e+04, 5.70197314e+03, 4.83828467e+03,
          4.11791445e+04, 2.28078931e+03, 2.16374683e+03, 8.06380798e+02 ]
      - [ 2.84638086e+03, 1.44249780e+03, 0., 8.06380798e+02,
          8.16000049e+03, 0., 0., 0., 0., 0., 0., 0., 0., 0., 0., 0.,
          2.12063809e+04, 3.30414136e+03, 1.14039465e+03, 8.06380798e+02,
          4.45914258e+03, 2.28078931e+03, 2.16374683e+03, 8.06380798e+02,
          1.10063809e+04, 1.44249780e+03, 0., 8.06380798e+02,
          1.38527617e+04, 2.28078931e+03, 6.60828271e+03, 1.61276160e+03,
          0., 7.21248901e+02, 2.28078931e+03, 1.61276160e+03,
          1.50863818e+04, 1.14039465e+03, 3.30414136e+03, 8.06380798e+02,
          8.06380798e+02, 1.50101904e+03, 0., 0., 0., 0., 0., 0.,
          8.53914258e+03, 5.88703369e+03, 4.56157861e+03, 4.03190405e+03,
          2.03519043e+04, 5.70197314e+03, 1.06336729e+04, 2.41914233e+03,
          1.05791426e+04, 1.74855371e+04, 4.56157861e+03, 3.22552319e+03,
          4.16063828e+04, 1.14039465e+03, 6.30617969e+03, 2.41914233e+03 ]
      - [ 2.84638086e+03, 1.44249780e+03, 0., 8.06380798e+02,
          8.16000049e+03, 0., 0., 0., 0., 0., 0., 0., 0., 0., 0., 0.,
          2.32463809e+04, 1.44249780e+03, 0., 8.06380798e+02,
          8.96638086e+03, 0., 1.44249780e+03, 8.06380798e+02,
          8.96638086e+03, 2.94351709e+03, 0., 0., 1.58927617e+04,
          1.14039465e+03, 4.74663916e+03, 1.61276160e+03, 0.,
          7.21248901e+02, 2.28078931e+03, 1.61276160e+03, 1.50863809e+04,
          1.14039465e+03, 3.30414136e+03, 8.06380798e+02, 8.06380798e+02,
          1.50101904e+03, 0., 0., 0., 0., 0., 0., 8.53914258e+03,
          5.88703369e+03, 4.56157861e+03, 4.03190405e+03, 2.03519043e+04,
          5.70197314e+03, 1.06336729e+04, 2.41914233e+03, 1.05791426e+04,
          1.78461621e+04, 5.70197314e+03, 4.03190405e+03, 3.91391445e+04,
          2.28078931e+03, 5.16578516e+03, 2.41914233e+03 ]
      - [ 1.79327617e+04, 3.00203809e+03, 0., 0., 0., 0., 0., 0., 0., 0.,
          0., 0., 0., 0., 0., 0., 2.23438086e+04, 9.72736328e+03, 0.,
          1.61276160e+03, 7.51914258e+03, 2.28078931e+03, 1.44249780e+03,
          8.06380798e+02, 1.70782852e+04, 8.16782324e+03, 0.,
          1.61276160e+03, 1.50863809e+04, 0., 1.44249780e+03,
          8.06380798e+02, 0., 0., 0., 0., 0., 0., 0., 0., 1.79327617e+04,
          2.88499561e+03, 0., 1.61276160e+03, 0., 0., 0., 0.,
          2.60927617e+04, 3.60624463e+03, 2.28078931e+03, 3.22552319e+03,
          1.82291426e+04, 0., 6.13061572e+03, 4.83828467e+03,
          3.03382852e+04, 9.55179980e+03, 2.28078931e+03, 2.41914233e+03,
          1.79327617e+04, 1.14039465e+03, 4.74663916e+03, 1.61276160e+03 ]
      - [ 4.88638086e+03, 2.94351709e+03, 0., 0., 0., 0., 0., 0., 0., 0.,
          0., 0., 0., 0., 0., 0., 3.05038086e+04, 1.45325244e+04, 0.,
          1.61276160e+03, 5.90638086e+03, 1.14039465e+03, 2.16374683e+03,
          8.06380798e+02, 1.32946660e+04, 8.52844727e+03, 0.,
          8.06380798e+02, 1.20263809e+04, 1.14039465e+03, 3.30414136e+03,
          8.06380798e+02, 0., 3.60624451e+02, 1.14039465e+03,
          8.06380798e+02, 2.84638086e+03, 0., 1.44249780e+03,
          8.06380798e+02, 6120., 0., 0., 0., 0., 0., 0., 0.,
          3.01727617e+04, 2.88499561e+03, 0., 1.61276160e+03,
          1.83119043e+04, 2.28078931e+03, 7.93373828e+03, 2.41914233e+03,
          4.20682852e+04, 1.38207725e+04, 3.42118408e+03, 4.83828467e+03,
          8.96638086e+03, 1.14039465e+03, 3.30414136e+03, 8.06380798e+02 ]
      - [ 1.61276160e+03, 4.38601465e+03, 0., 8.06380798e+02, 0., 0., 0.,
          0., 0., 0., 0., 0., 0., 0., 0., 0., 2.74438086e+04,
          1.59750215e+04, 0., 2.41914233e+03, 7.94638086e+03, 0.,
          1.44249780e+03, 8.06380798e+02, 8.91828516e+03, 9.24969629e+03,
          1.14039465e+03, 2.41914233e+03, 1.40663809e+04, 1.14039465e+03,
          2.94351709e+03, 0., 0., 3.60624451e+02, 1.14039465e+03,
          8.06380798e+02, 8.06380798e+02, 1.14039465e+03, 3.30414136e+03,
          8.06380798e+02, 2040., 0., 0., 0., 0., 0., 0., 0.,
          2.60927617e+04, 6.60828271e+03, 2.28078931e+03, 1.61276160e+03,
          1.52519043e+04, 0., 5.04874268e+03, 5.64466553e+03,
          4.19374258e+04, 1.55558760e+04, 2.28078931e+03, 3.22552319e+03,
          6.92638086e+03, 1.14039465e+03, 3.30414136e+03, 8.06380798e+02 ]
      - [ 4.45914258e+03, 4.44453613e+03, 0., 8.06380798e+02, 0., 0., 0.,
          0., 0., 0., 0., 0., 0., 0., 0., 0., 2.62101895e+04,
          1.22517344e+04, 0., 3.22552319e+03, 7.73276172e+03, 0.,
          7.21248901e+02, 0., 1.01519043e+04, 8.16782324e+03,
          2.28078931e+03, 2.41914233e+03, 9.13190430e+03, 4.56157861e+03,
          2.52437109e+03, 0., 0., 0., 0., 0., 4.88638086e+03, 0.,
          1.44249780e+03, 8.06380798e+02, 4.88638086e+03, 1.44249780e+03,
          0., 8.06380798e+02, 0., 0., 0., 0., 2.50727617e+04,
          2.88499561e+03, 0., 1.61276160e+03, 1.66991426e+04,
          1.14039465e+03, 6.18913721e+03, 2.41914233e+03, 4.15582852e+04,
          1.09942979e+04, 3.42118408e+03, 4.03190405e+03, 6.92638086e+03,
          1.14039465e+03, 4.38601465e+03, 1.61276160e+03 ]
      - [ 0., 0., 0., 0., 0., 0., 0., 0., 0., 0., 0., 0., 0., 0., 0., 0.,
          2.84638086e+03, 8.71350879e+03, 0., 0., 0., 0., 0., 0., 0., 0.,
          0., 0., 0., 0., 8.71350879e+03, 8.06380798e+02, 0., 0., 0., 0.,
          0., 0., 0., 0., 0., 0., 0., 0., 0., 0., 0., 0., 1.61276160e+03,
          1.37622510e+04, 2.28078931e+03, 2.41914233e+03, 2.37910469e+04,
          2.28078931e+03, 1.12378799e+04, 4.83828467e+03, 1.44455234e+04,
          1.62866221e+04, 0., 3.22552319e+03, 2.22263809e+04,
          1.14039465e+03, 1.49026455e+04, 1.61276160e+03 ]
      - [ 0., 0., 0., 0., 0., 0., 0., 0., 0., 0., 0., 0., 0., 0., 0., 0.,
          2.84638086e+03, 9.79538184e+03, 3.42118408e+03, 2.41914233e+03,
          0., 0., 0., 0., 0., 0., 0., 0., 3.22552319e+03, 2.28078931e+03,
          9.37623633e+03, 1.61276160e+03, 0., 0., 0., 0., 0., 0., 0., 0.,
          0., 0., 0., 0., 0., 0., 0., 0., 0., 1.22612314e+04,
          2.28078931e+03, 1.61276160e+03, 2.31155234e+04, 1.14039465e+03,
          1.94057031e+04, 5.64466553e+03, 7.00914258e+03, 1.12378799e+04,
          3.42118408e+03, 4.83828467e+03, 2.63891426e+04, 2.28078931e+03,
          7.93373828e+03, 8.06380798e+02 ]
      - [ 8.06380798e+02, 2.16374683e+03, 2.28078931e+03, 2.41914233e+03,
          0., 0., 0., 0., 0., 0., 0., 0., 0., 0., 0., 0., 2.62582852e+04,
          6.60828271e+03, 1.14039465e+03, 3.22552319e+03, 2550., 0.,
          3.00203809e+03, 1.61276160e+03, 1.18127617e+04, 3.00203809e+03,
          0., 0., 4.03190405e+03, 2.28078931e+03, 8.05078076e+03,
          4.03190405e+03, 0., 0., 0., 0., 2.12063809e+04, 1.14039465e+03,
          3.30414136e+03, 8.06380798e+02, 0., 0., 0., 0., 0., 0., 0., 0.,
          2.26055234e+04, 1.19591289e+04, 5.70197314e+03, 6.45104639e+03,
          2.03519043e+04, 2.28078931e+03, 1.09357764e+04, 4.03190405e+03,
          4.15582852e+04, 1.53217910e+04, 6.84236816e+03, 7.25742725e+03,
          2.98282852e+04, 2.28078931e+03, 5.40936719e+03, 4.03190405e+03 ]
      - [ 1.52519043e+04, 5.88703369e+03, 0., 2.41914233e+03, 1020., 0.,
          0., 0., 8.53914258e+03, 4.44453613e+03, 0., 8.06380798e+02, 0.,
          0., 0., 0., 1.50863809e+04, 1.44249780e+03, 0., 8.06380798e+02,
          8.96638086e+03, 0., 1.44249780e+03, 8.06380798e+02, 10200., 0.,
          0., 0., 1.38527617e+04, 0., 1.17740684e+04, 4.83828467e+03,
          4080., 0., 0., 0., 1.82638086e+03, 0., 1.03315703e+04,
          4.03190405e+03, 8160., 3.60624451e+02, 1.14039465e+03,
          8.06380798e+02, 1.18127617e+04, 2.28078931e+03, 6.66680420e+03,
          2.41914233e+03, 2.37910469e+04, 1.35186689e+04, 1.14039465e+03,
          4.83828467e+03, 2.20127617e+04, 0., 2.88499561e+03,
          1.61276160e+03, 3.46319023e+04, 1.77876406e+04, 5.70197314e+03,
          6.45104639e+03, 2.57963828e+04, 0., 3.60624451e+02,
          1.61276160e+03 ]
      - [ 2.41914233e+03, 5.82851270e+03, 1.14039465e+03, 2.41914233e+03,
          2040., 0., 0., 0., 8.06380798e+02, 1.08187341e+03, 0.,
          8.06380798e+02, 0., 0., 0., 0., 2.48591426e+04, 4.32749365e+03,
          0., 2.41914233e+03, 6.92638086e+03, 1.14039465e+03,
          3.30414136e+03, 8.06380798e+02, 1.79327617e+04, 3.00203809e+03,
          0., 0., 6.07190381e+03, 1.14039465e+03, 9.07413281e+03,
          4.03190405e+03, 0., 7.21248901e+02, 2.28078931e+03,
          1.61276160e+03, 1.46591426e+04, 3.42118408e+03, 7.02742871e+03,
          2.41914233e+03, 0., 0., 0., 0., 1.71263809e+04, 0.,
          1.44249780e+03, 8.06380798e+02, 3.22127617e+04, 9.79538184e+03,
          7.98276270e+03, 6.45104639e+03, 1.95455234e+04, 2.28078931e+03,
          3.60624463e+03, 1.61276160e+03, 4.76782852e+04, 1.30995234e+04,
          4.56157861e+03, 6.45104639e+03, 1.50863818e+04, 0.,
          4.44453613e+03, 2.41914233e+03 ]
      - [ 0., 0., 0., 0., 0., 0., 0., 0., 0., 0., 0., 0., 0., 0., 0., 0.,
          2.84638086e+03, 2.16374683e+03, 2.28078931e+03, 2.41914233e+03,
          8.06380798e+02, 1.14039465e+03, 3.60624451e+02, 0., 0., 0., 0.,
          0., 6.92638086e+03, 0., 1.44249780e+03, 8.06380798e+02, 0., 0.,
          0., 0., 0., 0., 0., 0., 0., 0., 0., 0., 0., 0., 0., 0.,
          5.69276172e+03, 1.88109941e+04, 0., 8.06380798e+02,
          1.66991426e+04, 2.28078931e+03, 2.24757598e+04, 2.41914233e+03,
          4.45914258e+03, 1.99513887e+04, 3.42118408e+03, 3.22552319e+03,
          1.71263809e+04, 0., 1.60430400e+04, 3.22552319e+03 ]
      - [ 0., 0., 0., 0., 0., 0., 0., 0., 0., 0., 0., 0., 0., 0., 0., 0.,
          3.65276172e+03, 2.94351709e+03, 0., 8.06380798e+02, 4080., 0.,
          0., 0., 0., 0., 0., 0., 2.84638086e+03, 1.14039465e+03,
          4.68811816e+03, 0., 0., 0., 0., 0., 0., 0., 0., 0., 0., 0., 0.,
          0., 0., 0., 0., 0., 1.36391426e+04, 9.07413281e+03, 0.,
          2.41914233e+03, 1.71263809e+04, 1.14039465e+03, 2.60234824e+04,
          0., 3.22552319e+03, 1.80897441e+04, 3.42118408e+03,
          5.64466553e+03, 1.66991426e+04, 0., 9.07413281e+03,
          2.41914233e+03 ]
      - [ 0., 0., 0., 0., 0., 0., 0., 0., 0., 0., 0., 0., 0., 0., 0., 0.,
          2040., 4.68811816e+03, 1.14039465e+03, 8.06380798e+02, 2040.,
          0., 0., 0., 0., 0., 0., 0., 4.88638086e+03, 0., 2.94351709e+03,
          1.61276160e+03, 0., 0., 0., 0., 0., 0., 0., 0., 0., 0., 0., 0.,
          0., 0., 0., 0., 1.36391426e+04, 9.07413281e+03, 0.,
          2.41914233e+03, 1.87391426e+04, 2.28078931e+03, 2.21151348e+04,
          1.61276160e+03, 1.61276160e+03, 2.09747402e+04, 3.42118408e+03,
          4.03190405e+03, 1.66991426e+04, 0., 9.07413281e+03,
          2.41914233e+03 ]
      - [ 0., 0., 0., 0., 0., 0., 0., 0., 0., 0., 0., 0., 0., 0., 0., 0.,
          8.06380798e+02, 2.16374683e+03, 2.28078931e+03, 2.41914233e+03,
          4.08000024e+03, 0., 0., 0., 0., 0., 0., 0., 6.92638086e+03,
          1.14039465e+03, 3.30414136e+03, 8.06380798e+02, 2.84638086e+03,
          3.30414136e+03, 1.14039465e+03, 8.06380798e+02, 8.06380798e+02,
          1.14039465e+03, 7.57311377e+03, 0., 0., 0., 0., 0., 0., 0., 0.,
          0., 4.67276172e+03, 1.34016270e+04, 0., 1.61276160e+03,
          1.48727617e+04, 0., 1.60430400e+04, 4.03190405e+03,
          5.64466553e+03, 2.17545098e+04, 0., 4.03190405e+03,
          1.56791426e+04, 1.14039465e+03, 1.67057676e+04, 2.41914233e+03 ]
      - [ 0., 0., 0., 0., 0., 0., 0., 0., 0., 0., 0., 0., 0., 0., 0., 0.,
          8.06380798e+02, 3.30414136e+03, 1.14039465e+03, 8.06380798e+02,
          6.12000049e+03, 0., 0., 0., 0., 7.21248901e+02, 2.28078931e+03,
          1.61276160e+03, 2.41914233e+03, 2.28078931e+03, 2.16374683e+03,
          8.06380798e+02, 0., 3.60624451e+02, 0., 8.06380798e+02,
          1.82638086e+03, 0., 3.60624451e+02, 0., 0., 0., 0., 0., 0., 0.,
          0., 0., 7.00914258e+03, 1.74270176e+04, 1.14039465e+03,
          8.06380798e+02, 1.64855234e+04, 1.14039465e+03, 2.02534922e+04,
          4.03190405e+03, 6.07190381e+03, 1.95907637e+04, 2.28078931e+03,
          4.03190405e+03, 2.03519043e+04, 0., 1.12964004e+04,
          6.45104639e+03 ]
      - [ 4.37638086e+03, 1.08187341e+03, 0., 8.06380798e+02,
          4.37638086e+03, 0., 0., 0., 510., 3.60624451e+02,
          1.14039465e+03, 8.06380798e+02, 7.73276172e+03, 2.28078931e+03,
          3.66476587e+03, 8.06380798e+02, 4.88638086e+03, 3.60624451e+02,
          0., 0., 0., 0., 0., 0., 0., 0., 0., 0., 0., 0., 3.60624451e+02,
          8.06380798e+02, 4.67276172e+03, 3.00203809e+03, 0., 0.,
          1.42800010e+04, 0., 2.58289258e+03, 1.61276160e+03,
          7.89828467e+03, 9.36673926e+03, 1.14039465e+03, 8.06380798e+02,
          9.04914258e+03, 2.28078931e+03, 1.08187329e+03, 1.61276160e+03,
          2.35774277e+04, 1.75345625e+04, 0., 0., 0., 0., 0., 0.,
          3.21165703e+04, 1.96983086e+04, 1.14039465e+03, 2.41914233e+03,
          4.88638086e+03, 0., 4.08391162e+03, 1.61276160e+03 ]
      - [ 2.84638086e+03, 3.30414136e+03, 1.14039465e+03, 8.06380798e+02,
          10200., 0., 0., 0., 0., 0., 0., 0., 0., 0., 0., 0.,
          4.88638086e+03, 3.60624451e+02, 0., 0., 0., 0., 0., 0., 0., 0.,
          0., 0., 1.10063809e+04, 1.14039465e+03, 3.66476587e+03,
          1.61276160e+03, 0., 0., 0., 0., 2.73263828e+04, 1.14039465e+03,
          6.18913721e+03, 8.06380798e+02, 0., 0., 0., 0., 0., 0., 0., 0.,
          2.81193320e+04, 2.21546621e+04, 0., 0., 0., 0., 0., 0.,
          3.78093320e+04, 2.89480059e+04, 0., 1.61276160e+03,
          1.58927617e+04, 0., 3.00203809e+03, 1.61276160e+03 ]
      - [ 3.86638086e+03, 1.44249780e+03, 0., 8.06380798e+02, 0., 0., 0.,
          0., 0., 0., 0., 0., 1.23227617e+04, 1.14039465e+03,
          7.21248901e+02, 1.61276160e+03, 0., 0., 0., 0., 0., 0., 0., 0.,
          0., 0., 0., 0., 0., 0., 0., 0., 5.77552344e+03, 6.00407617e+03,
          0., 0., 0., 0., 0., 0., 1.03655234e+04, 9.19117578e+03,
          2.28078931e+03, 2.41914233e+03, 1.74227617e+04, 0.,
          3.60624451e+02, 8.06380798e+02, 3.42046641e+04, 1.22517344e+04,
          1.14039465e+03, 1.61276160e+03, 0., 0., 0., 0., 3.29710469e+04,
          1.54973555e+04, 2.28078931e+03, 3.22552319e+03, 2.84638086e+03,
          0., 1.44249780e+03, 8.06380798e+02 ]
      - [ 3.86638086e+03, 1.44249780e+03, 0., 8.06380798e+02, 0., 0., 0.,
          0., 0., 0., 0., 0., 1.23227617e+04, 1.14039465e+03,
          7.21248901e+02, 1.61276160e+03, 0., 0., 0., 0., 0., 0., 0., 0.,
          0., 0., 0., 0., 0., 0., 0., 0., 4.54190381e+03, 7.50509570e+03,
          0., 0., 0., 0., 0., 0., 1.03655234e+04, 9.19117578e+03,
          2.28078931e+03, 2.41914233e+03, 1.74227617e+04, 0.,
          3.60624451e+02, 8.06380798e+02, 3.50110469e+04, 1.18911104e+04,
          0., 1.61276160e+03, 0., 0., 0., 0., 3.29710469e+04,
          1.44740029e+04, 3.42118408e+03, 3.22552319e+03, 2.84638086e+03,
          0., 1.44249780e+03, 8.06380798e+02 ]
      - [ 0., 0., 0., 0., 0., 0., 0., 0., 0., 0., 0., 0., 0., 0., 0., 0.,
          1.23227617e+04, 1.80312231e+03, 0., 8.06380798e+02, 10200., 0.,
          0., 0., 0., 0., 0., 0., 1.10063809e+04, 0., 1.44249780e+03,
          1.61276160e+03, 0., 3.60624451e+02, 0., 8.06380798e+02,
          7.94638135e+03, 0., 3.60624451e+02, 0., 0., 0., 0., 0., 0., 0.,
          0., 0., 1.97110469e+04, 2.50491543e+04, 2.28078931e+03,
          8.06380798e+02, 13260., 1.14039465e+03, 2.94351709e+03,
          8.06380798e+02, 2.94357129e+04, 3.36361250e+04, 0., 0.,
          1.79327617e+04, 0., 1.44249780e+03, 8.06380798e+02 ]
      - [ 0., 3.60624451e+02, 0., 8.06380798e+02, 5100., 0., 0., 0., 0.,
          0., 0., 0., 0., 0., 0., 0., 1.05791426e+04, 4.08391162e+03, 0.,
          0., 5.10000049e+03, 0., 0., 0., 0., 0., 0., 0., 1.10063809e+04,
          0., 4.38601465e+03, 1.61276160e+03, 0., 0., 0., 0.,
          1.30463818e+04, 0., 3.60624451e+02, 0., 0., 0., 0., 0., 0., 0.,
          0., 0., 1.60101885e+04, 2.22226797e+04, 0., 8.06380798e+02,
          1.22400010e+04, 1.14039465e+03, 1.44249780e+03, 0.,
          3.21165703e+04, 2.64916523e+04, 0., 2.41914233e+03,
          2.07791426e+04, 1.14039465e+03, 1.08187329e+03, 0. ]
      - [ 2.84638086e+03, 1.44249780e+03, 0., 8.06380798e+02, 10200., 0.,
          0., 0., 0., 0., 0., 0., 1.10063809e+04, 0., 1.44249780e+03,
          8.06380798e+02, 5.69276172e+03, 3.00203809e+03, 0., 0., 0., 0.,
          0., 0., 0., 0., 0., 0., 0., 0., 3.00203809e+03, 1.61276160e+03,
          2.63276172e+03, 5.82851270e+03, 0., 8.06380798e+02,
          2.73263828e+04, 0., 1.44249780e+03, 8.06380798e+02,
          5.26552344e+03, 7.63163477e+03, 1.14039465e+03, 3.22552319e+03,
          1.58927627e+04, 0., 7.21248901e+02, 0., 1.42319043e+04,
          1.61600830e+04, 0., 0., 0., 0., 0., 0., 2.56174277e+04,
          1.81972891e+04, 1.14039465e+03, 8.06380798e+02, 2.84638086e+03,
          0., 1.44249780e+03, 8.06380798e+02 ]
      - [ 0., 0., 0., 0., 0., 0., 0., 0., 0., 0., 0., 0., 0., 0., 0., 0.,
          1.13027617e+04, 3.30414136e+03, 0., 8.06380798e+02, 10200., 0.,
          0., 0., 0., 0., 0., 0., 1.10063809e+04, 0., 3.30414136e+03,
          1.61276160e+03, 0., 7.21248901e+02, 0., 8.06380798e+02,
          1.31638086e+03, 0., 7.21248901e+02, 0., 0., 0., 0., 0., 0., 0.,
          0., 0., 1.69474277e+04, 2.17450137e+04, 3.42118408e+03,
          2.41914233e+03, 1.61891436e+04, 3.42118408e+03, 1.80312231e+03,
          8.06380798e+02, 2.76574277e+04, 3.22616445e+04, 1.14039465e+03,
          8.06380798e+02, 1.87391426e+04, 0., 1.80312231e+03,
          8.06380798e+02 ]
      - [ 0., 4.32749365e+03, 0., 0., 0., 0., 0., 0., 0., 0., 0., 0., 0.,
          0., 0., 0., 3.09791426e+04, 5.52640967e+03, 1.14039465e+03,
          1.61276160e+03, 2.84638086e+03, 0., 5.58493066e+03,
          3.22552319e+03, 1.66991426e+04, 7.02742871e+03, 1.14039465e+03,
          8.06380798e+02, 2.41914233e+03, 2.28078931e+03, 7.69015625e+03,
          2.41914233e+03, 0., 1.08187329e+03, 3.42118408e+03,
          2.41914233e+03, 8.96638086e+03, 1.14039465e+03, 3.30414136e+03,
          8.06380798e+02, 8.06380798e+02, 1.50101904e+03, 0., 0., 0., 0.,
          0., 0., 1.46591426e+04, 4.80516064e+03, 2.28078931e+03,
          2.41914233e+03, 2.31982852e+04, 3.42118408e+03, 8.35288379e+03,
          3.22552319e+03, 1.26191426e+04, 1.46005420e+04, 5.70197314e+03,
          4.03190405e+03, 3.50591445e+04, 2.28078931e+03, 2.16374683e+03,
          8.06380798e+02 ]
      - [ 8.11190381e+03, 8.83055078e+03, 0., 1.61276160e+03, 0., 0., 0.,
          0., 8.06380798e+02, 3.60624451e+02, 0., 0., 0., 0., 0., 0.,
          30600., 0., 0., 0., 0., 0., 7.21248901e+02, 1.61276160e+03,
          6.92638086e+03, 3.60624451e+02, 0., 0., 1.61276160e+03,
          1.14039465e+03, 7.74867773e+03, 3.22552319e+03, 2040.,
          3.24562012e+03, 1.14039465e+03, 8.06380798e+02, 5100., 0., 0.,
          0., 9.34552344e+03, 9.61032129e+03, 3.42118408e+03,
          3.22552319e+03, 10200., 0., 0., 0., 1.26191426e+04,
          1.01560059e+04, 4.56157861e+03, 4.83828467e+03, 2.00074277e+04,
          4.56157861e+03, 1.28559414e+04, 6.45104639e+03, 3.11446660e+04,
          1.48346270e+04, 5.70197314e+03, 4.83828467e+03, 2.11582852e+04,
          3.42118408e+03, 8.35288379e+03, 3.22552319e+03 ]
      - [ 1.01519043e+04, 7.32953174e+03, 0., 2.41914233e+03, 0., 0., 0.,
          0., 1.82638086e+03, 3.60624451e+02, 0., 0., 0., 0., 0., 0.,
          28560., 0., 0., 0., 0., 0., 7.21248901e+02, 1.61276160e+03,
          5.90638086e+03, 3.60624451e+02, 0., 0., 1.61276160e+03,
          1.14039465e+03, 7.74867773e+03, 3.22552319e+03, 2040.,
          1.80312231e+03, 1.14039465e+03, 8.06380798e+02, 0., 0., 0., 0.,
          8.32552344e+03, 1.17740684e+04, 1.14039465e+03, 1.61276160e+03,
          12240., 0., 0., 0., 1.62719043e+04, 7.21248926e+03, 0.,
          4.03190405e+03, 2.68991426e+04, 1.14039465e+03, 1.73589980e+04,
          5.64466553e+03, 2.95319043e+04, 1.39963359e+04, 3.42118408e+03,
          3.22552319e+03, 2.72782852e+04, 2.28078931e+03, 6.49124023e+03,
          3.22552319e+03 ]
      - [ 8.06380798e+02, 1.44249780e+03, 0., 8.06380798e+02, 0., 0., 0.,
          0., 0., 0., 0., 0., 0., 0., 0., 0., 3.33982852e+04,
          8.88907227e+03, 0., 1.61276160e+03, 1.31638086e+03, 0.,
          3.30414136e+03, 2.41914233e+03, 1.69127617e+04, 5.88703418e+03,
          0., 0., 2.41914233e+03, 0., 1.03315703e+04, 5.64466553e+03, 0.,
          7.21248901e+02, 2.28078931e+03, 1.61276160e+03, 1.50863809e+04,
          1.14039465e+03, 3.30414136e+03, 8.06380798e+02, 0., 0., 0., 0.,
          0., 0., 0., 0., 1.30463809e+04, 5.40936719e+03, 3.42118408e+03,
          3.22552319e+03, 1.99727617e+04, 2.28078931e+03, 1.82067871e+04,
          2.41914233e+03, 1.58927617e+04, 2.24757598e+04, 6.84236816e+03,
          4.83828467e+03, 3.54863828e+04, 1.14039465e+03, 6.18913721e+03,
          8.06380798e+02 ]
      - [ 1.61276160e+03, 2.94351709e+03, 0., 8.06380798e+02, 0., 0., 0.,
          0., 0., 0., 0., 0., 0., 0., 0., 0., 3.09791426e+04,
          1.02730488e+04, 0., 0., 1.61276160e+03, 0., 2.88499561e+03,
          1.61276160e+03, 1.99727617e+04, 5.88703418e+03, 0., 0.,
          8.06380798e+02, 1.14039465e+03, 1.21932139e+04, 4.03190405e+03,
          0., 7.21248901e+02, 2.28078931e+03, 1.61276160e+03,
          1.46591426e+04, 2.28078931e+03, 2.16374683e+03, 8.06380798e+02,
          8.06380798e+02, 1.50101904e+03, 0., 0., 0., 0., 0., 0.,
          1.30463809e+04, 6.91038623e+03, 3.42118408e+03, 2.41914233e+03,
          2.28191426e+04, 1.14039465e+03, 1.49611670e+04, 4.03190405e+03,
          1.66991426e+04, 1.85674121e+04, 7.98276270e+03, 5.64466553e+03,
          3.38255234e+04, 3.42118408e+03, 5.40936719e+03, 8.06380798e+02 ]
      - [ 0., 3.60624451e+02, 0., 8.06380798e+02, 0., 0., 0., 0., 0., 0.,
          0., 0., 0., 0., 0., 0., 3.46319023e+04, 9.85390332e+03, 0.,
          1.61276160e+03, 8.06380798e+02, 0., 4.38601465e+03,
          1.61276160e+03, 1.99727617e+04, 2.88499561e+03, 0.,
          1.61276160e+03, 0., 0., 1.46005420e+04, 2.41914233e+03, 0.,
          3.60624451e+02, 2.28078931e+03, 8.06380798e+02, 1.40663809e+04,
          1.14039465e+03, 1.80312231e+03, 0., 0., 0., 0., 0., 0., 0., 0.,
          0., 1.50863809e+04, 5.40936719e+03, 2.28078931e+03,
          3.22552319e+03, 2.26055234e+04, 4.56157861e+03, 1.74270176e+04,
          1.61276160e+03, 1.95455234e+04, 1.77291191e+04, 5.70197314e+03,
          6.45104639e+03, 3.79055234e+04, 3.42118408e+03, 2.52437109e+03,
          8.06380798e+02 ]
      - [ 8.11190381e+03, 6.96890723e+03, 0., 2.41914233e+03, 0., 0., 0.,
          0., 2.84638086e+03, 1.08187341e+03, 0., 8.06380798e+02, 0., 0.,
          0., 0., 30600., 0., 0., 0., 1.61276160e+03, 0., 2.88499561e+03,
          1.61276160e+03, 1.71263809e+04, 1.44249780e+03, 0.,
          8.06380798e+02, 2.41914233e+03, 1.14039465e+03, 6.18913721e+03,
          2.41914233e+03, 0., 7.21248901e+02, 2.28078931e+03,
          1.61276160e+03, 1.30463809e+04, 1.14039465e+03, 3.30414136e+03,
          8.06380798e+02, 2.41914233e+03, 6.18913721e+03, 1.14039465e+03,
          2.41914233e+03, 1.22400010e+04, 0., 0., 0., 1.42319043e+04,
          6.85186475e+03, 0., 3.22552319e+03, 2.49419043e+04,
          1.14039465e+03, 9.07413281e+03, 4.03190405e+03, 2.23919043e+04,
          8.71350879e+03, 1.14039465e+03, 3.22552319e+03, 2.74091426e+04,
          0., 4.32749365e+03, 2.41914233e+03 ]
      - [ 0., 0., 0., 0., 0., 0., 0., 0., 0., 0., 0., 0., 0., 0., 0., 0.,
          3.91391406e+04, 6.18913721e+03, 1.14039465e+03, 2.41914233e+03,
          1.61276160e+03, 0., 2.88499561e+03, 1.61276160e+03,
          2.17991426e+04, 1.80312231e+03, 0., 1.61276160e+03,
          2.92914233e+03, 1.14039465e+03, 6.18913721e+03, 2.41914233e+03,
          0., 3.60624451e+02, 0., 8.06380798e+02, 4.88638086e+03, 0.,
          3.60624451e+02, 0., 0., 0., 0., 0., 0., 0., 0., 0.,
          1.42319043e+04, 7.21248926e+03, 2.28078931e+03, 4.03190405e+03,
          3.35291445e+04, 1.14039465e+03, 1.30410020e+04, 3.22552319e+03,
          2.60446660e+04, 1.34016260e+04, 3.42118408e+03, 7.25742725e+03,
          3.81191445e+04, 0., 4.32749365e+03, 2.41914233e+03 ]
      - [ 0., 0., 0., 0., 0., 0., 0., 0., 0., 0., 0., 0., 0., 0., 0., 0.,
          3.50591406e+04, 4.80516064e+03, 1.14039465e+03, 1.61276160e+03,
          0., 0., 7.21248901e+02, 1.61276160e+03, 1.07927617e+04,
          7.21248901e+02, 0., 0., 0., 0., 8.83055078e+03, 2.41914233e+03,
          0., 1.80312231e+03, 1.14039465e+03, 8.06380798e+02,
          1.10063809e+04, 0., 1.44249780e+03, 8.06380798e+02, 0., 0., 0.,
          0., 0., 0., 0., 0., 6.49914258e+03, 1.38792930e+04,
          3.42118408e+03, 2.41914233e+03, 1.42319043e+04, 4.56157861e+03,
          1.34601475e+04, 8.06380798e+02, 3.60310469e+04, 1.80217266e+04,
          4.56157861e+03, 6.45104639e+03, 2.60927617e+04, 1.14039465e+03,
          1.03315703e+04, 4.03190405e+03 ]
      - [ 0., 0., 0., 0., 0., 0., 0., 0., 0., 0., 0., 0., 0., 0., 0., 0.,
          3.50591406e+04, 4.80516064e+03, 1.14039465e+03, 1.61276160e+03,
          0., 0., 7.21248901e+02, 1.61276160e+03, 1.18127617e+04,
          7.21248901e+02, 0., 0., 0., 0., 8.83055078e+03, 2.41914233e+03,
          0., 1.80312231e+03, 1.14039465e+03, 8.06380798e+02,
          1.10063809e+04, 0., 1.44249780e+03, 8.06380798e+02, 0., 0., 0.,
          0., 0., 0., 0., 0., 6.49914258e+03, 1.38792930e+04,
          4.56157861e+03, 3.22552319e+03, 1.27019043e+04, 4.56157861e+03,
          1.23782744e+04, 1.61276160e+03, 3.44182852e+04, 1.94057031e+04,
          5.70197314e+03, 6.45104639e+03, 2.40527617e+04, 1.14039465e+03,
          1.03315703e+04, 4.03190405e+03 ]
      - [ 0., 3.60624451e+02, 0., 0., 0., 0., 0., 0., 0., 0., 0., 0., 0.,
          0., 0., 0., 3.50591406e+04, 8.46992676e+03, 0., 0., 0., 0.,
          7.21248901e+02, 1.61276160e+03, 1.07927617e+04, 7.21248901e+02,
          0., 0., 0., 0., 8.71350879e+03, 8.06380798e+02, 1.61276160e+03,
          2.58289258e+03, 0., 8.06380798e+02, 1.30463809e+04, 0.,
          1.44249780e+03, 8.06380798e+02, 2040., 0., 0., 0., 0., 0., 0.,
          0., 6.49914258e+03, 1.13549219e+04, 4.56157861e+03,
          3.22552319e+03, 1.17646660e+04, 6.84236816e+03, 1.05751523e+04,
          1.61276160e+03, 3.50110469e+04, 1.76611016e+04, 4.56157861e+03,
          5.64466553e+03, 2.66027617e+04, 1.14039465e+03, 1.03315703e+04,
          4.03190405e+03 ]
      - [ 0., 0., 0., 0., 0., 0., 0., 0., 0., 0., 0., 0., 0., 0., 0., 0.,
          3.50591406e+04, 6.30617969e+03, 1.14039465e+03, 8.06380798e+02,
          8.06380798e+02, 0., 7.21248901e+02, 1.61276160e+03,
          9.26276172e+03, 2.22226807e+03, 0., 0., 8.06380798e+02,
          1.14039465e+03, 6.30617969e+03, 2.41914233e+03, 8.06380798e+02,
          1.80312231e+03, 1.14039465e+03, 1.61276160e+03, 1.15991426e+04,
          1.14039465e+03, 7.21248901e+02, 8.06380798e+02, 510., 0., 0.,
          0., 0., 0., 0., 0., 8.11190381e+03, 1.06336729e+04,
          3.42118408e+03, 4.83828467e+03, 1.20610469e+04, 6.84236816e+03,
          1.20761709e+04, 2.41914233e+03, 3.19510469e+04, 2.45714883e+04,
          2.28078931e+03, 3.22552319e+03, 2.89391426e+04, 0.,
          1.03315703e+04, 5.64466553e+03 ]
      - [ 1.82638086e+03, 2.94351709e+03, 1.14039465e+03, 0., 3060., 0.,
          0., 0., 0., 3.60624451e+02, 1.14039465e+03, 8.06380798e+02,
          6.12000049e+03, 0., 2.94351709e+03, 8.06380798e+02,
          5.69276172e+03, 3.60624463e+03, 2.28078931e+03, 3.22552319e+03,
          6120., 0., 0., 0., 0., 7.21248901e+02, 2.28078931e+03,
          1.61276160e+03, 5.69276172e+03, 1.14039465e+03, 4.74663916e+03,
          1.61276160e+03, 4.88638086e+03, 1.50101904e+03, 0., 0.,
          8.75276172e+03, 3.42118408e+03, 3.66476587e+03, 8.06380798e+02,
          13260., 0., 0., 0., 1.30463809e+04, 0., 4.44453613e+03,
          2.41914233e+03, 7.68466553e+03, 1.47175850e+04, 4.56157861e+03,
          4.83828467e+03, 1.42800010e+04, 0., 7.38805322e+03,
          2.41914233e+03, 2.07310469e+04, 1.52537734e+04, 5.70197314e+03,
          4.03190405e+03, 2.07791426e+04, 2.28078931e+03, 5.16578516e+03,
          2.41914233e+03 ]
      - [ 0., 0., 0., 0., 20400., 0., 0., 0., 0., 0., 0., 0., 20400., 0.,
          0., 0., 2040., 7.21248901e+02, 2.28078931e+03, 1.61276160e+03,
          2.85600020e+04, 0., 0., 0., 0., 0., 0., 0., 3.01727637e+04, 0.,
          2.88499561e+03, 1.61276160e+03, 0., 0., 0., 0., 1.83119043e+04,
          3.42118408e+03, 6.91038623e+03, 2.41914233e+03, 0., 0., 0., 0.,
          5.69276172e+03, 2.28078931e+03, 7.21248901e+02, 0.,
          1.46110469e+04, 1.34016270e+04, 1.14039465e+03, 6.45104639e+03,
          2.41355234e+04, 0., 9.43475684e+03, 4.03190405e+03,
          3.14410469e+04, 1.40643545e+04, 3.42118408e+03, 8.87018848e+03,
          3.50110469e+04, 2.28078931e+03, 9.37623633e+03, 4.83828467e+03 ]
      - [ 0., 0., 0., 0., 0., 0., 0., 0., 0., 0., 0., 0., 20400., 0., 0.,
          0., 2040., 1.80312231e+03, 1.14039465e+03, 8.06380798e+02,
          2.85600020e+04, 0., 0., 0., 0., 0., 0., 0., 2.93663828e+04, 0.,
          2.94351709e+03, 1.61276160e+03, 4.88638086e+03, 1.44249780e+03,
          0., 8.06380798e+02, 3.22552319e+03, 1.14039465e+03,
          7.63163477e+03, 3.22552319e+03, 7.73276172e+03, 2.88499561e+03,
          0., 1.61276160e+03, 1.01519043e+04, 2.28078931e+03,
          5.04874268e+03, 2.41914233e+03, 9.72466602e+03, 1.19591289e+04,
          1.14039465e+03, 5.64466553e+03, 2.17991426e+04, 2.28078931e+03,
          6.60828271e+03, 2.41914233e+03, 2.29846660e+04, 1.48441240e+04,
          1.14039465e+03, 5.64466553e+03, 3.25919043e+04, 2.28078931e+03,
          5.04874268e+03, 2.41914233e+03 ]
      - [ 0., 3.60624451e+02, 1.14039465e+03, 8.06380798e+02,
          1.71263809e+04, 1.14039465e+03, 3.60624451e+02, 0., 0., 0., 0.,
          0., 1.82638086e+03, 0., 3.60624451e+02, 0., 5.90638086e+03,
          2.52437109e+03, 3.42118408e+03, 3.22552319e+03, 1.99727617e+04,
          2.28078931e+03, 7.21248901e+02, 0., 510., 0., 0.,
          8.06380798e+02, 3.20819043e+04, 3.42118408e+03, 2.16374683e+03,
          8.06380798e+02, 0., 0., 0., 0., 1.75055234e+04, 4.56157861e+03,
          4.32749365e+03, 0., 0., 0., 0., 0., 0., 0., 0., 0.,
          1.45282852e+04, 1.15399824e+04, 4.56157861e+03, 8.06380811e+03,
          2.07310469e+04, 1.14039465e+03, 1.12378799e+04, 4.83828467e+03,
          3.29710469e+04, 1.26218564e+04, 5.70197314e+03, 8.87018848e+03,
          2.86774277e+04, 3.42118408e+03, 1.00974854e+04, 4.83828467e+03 ]
      - [ 1.61276160e+03, 4.68811816e+03, 2.28078931e+03, 4.03190405e+03,
          9180., 0., 0., 0., 0., 0., 0., 0., 1.31638086e+03, 0.,
          1.44249780e+03, 0., 1.18127617e+04, 3.24562012e+03,
          1.14039465e+03, 2.41914233e+03, 16320., 0., 0., 0., 0., 0., 0.,
          0., 2.12891426e+04, 2.28078931e+03, 3.30414136e+03,
          1.61276160e+03, 0., 0., 0., 0., 1.83119043e+04, 3.42118408e+03,
          6.91038623e+03, 2.41914233e+03, 0., 0., 0., 0., 0., 0., 0., 0.,
          1.54655234e+04, 1.24367959e+04, 6.84236816e+03, 5.64466553e+03,
          1.58927617e+04, 1.14039465e+03, 1.22517344e+04, 5.64466553e+03,
          2.61274277e+04, 2.03025156e+04, 4.56157861e+03, 3.22552319e+03,
          2.91527617e+04, 2.28078931e+03, 9.49327832e+03, 1.61276160e+03 ]
      - [ 2.84638086e+03, 2.52437134e+03, 0., 1.61276160e+03, 1020., 0.,
          0., 0., 0., 0., 0., 0., 1.56791426e+04, 2.28078931e+03,
          1.80312231e+03, 0., 1.18127617e+04, 2.88499561e+03, 0.,
          1.61276160e+03, 18360., 0., 0., 0., 0., 0., 0., 0.,
          1.99727617e+04, 0., 2.88499561e+03, 1.61276160e+03, 6120., 0.,
          0., 0., 1.61276160e+03, 2.28078931e+03, 9.61032129e+03,
          3.22552319e+03, 6.92638086e+03, 1.50101904e+03, 0., 0.,
          1.26191426e+04, 2.28078931e+03, 2.16374683e+03, 8.06380798e+02,
          1.25710469e+04, 1.24953164e+04, 2.28078931e+03, 4.83828467e+03,
          1.91663809e+04, 1.14039465e+03, 9.30821777e+03, 4.03190405e+03,
          1.99246660e+04, 1.55558760e+04, 6.84236816e+03, 4.83828467e+03,
          2.68991426e+04, 3.42118408e+03, 4.02539038e+03, 8.06380798e+02 ]
      - [ 2040., 0., 0., 0., 0., 0., 0., 0., 0., 0., 0., 0.,
          8.96638086e+03, 1.14039465e+03, 3.30414136e+03, 8.06380798e+02,
          1.18127617e+04, 2.88499561e+03, 0., 1.61276160e+03, 12240., 0.,
          0., 0., 0., 0., 0., 0., 1.38527617e+04, 0., 2.88499561e+03,
          1.61276160e+03, 3.65276172e+03, 3.00203809e+03, 0., 0.,
          8.06380798e+02, 1.14039465e+03, 6.30617969e+03, 2.41914233e+03,
          9.77276172e+03, 3.00203809e+03, 0., 0., 1.30463809e+04, 0.,
          7.32953174e+03, 2.41914233e+03, 1.13855234e+04, 1.20761709e+04,
          5.70197314e+03, 4.83828467e+03, 1.97591426e+04, 0.,
          7.80719873e+03, 4.83828467e+03, 1.92010469e+04, 1.58579795e+04,
          7.98276270e+03, 7.25742725e+03, 2.32463809e+04, 1.14039465e+03,
          6.18913721e+03, 8.06380798e+02 ]
      - [ 2040., 0., 0., 0., 0., 0., 0., 0., 0., 3.60624451e+02,
          1.14039465e+03, 8.06380798e+02, 5.69276172e+03, 2.28078931e+03,
          3.66476587e+03, 8.06380798e+02, 1.18127617e+04, 2.88499561e+03,
          0., 1.61276160e+03, 12240., 0., 0., 0., 0., 0., 0., 0.,
          1.38527617e+04, 0., 2.88499561e+03, 1.61276160e+03,
          3.65276172e+03, 3.00203809e+03, 0., 0., 8.06380798e+02,
          1.14039465e+03, 6.30617969e+03, 2.41914233e+03, 9.77276172e+03,
          3.00203809e+03, 0., 0., 1.30463809e+04, 0., 7.32953174e+03,
          2.41914233e+03, 1.13855234e+04, 1.20761709e+04, 5.70197314e+03,
          4.83828467e+03, 1.97591426e+04, 0., 7.80719873e+03,
          4.83828467e+03, 1.92010469e+04, 1.58579795e+04, 7.98276270e+03,
          7.25742725e+03, 2.32463809e+04, 1.14039465e+03, 6.18913721e+03,
          8.06380798e+02 ]
      - [ 8.06380798e+02, 3.30414136e+03, 1.14039465e+03, 8.06380798e+02,
          4080., 0., 0., 0., 0., 0., 0., 0., 4.88638086e+03,
          1.14039465e+03, 3.30414136e+03, 8.06380798e+02, 1.66991426e+04,
          1.17155469e+04, 0., 0., 8.06380798e+02, 0., 1.44249780e+03,
          8.06380798e+02, 5.69276172e+03, 3.00203809e+03, 0., 0.,
          4.88638086e+03, 1.14039465e+03, 3.30414136e+03, 8.06380798e+02,
          0., 0., 0., 0., 1.46591426e+04, 3.42118408e+03, 9.79538184e+03,
          8.06380798e+02, 0., 0., 0., 0., 9.77276172e+03, 2.28078931e+03,
          7.21248901e+02, 0., 1.36391426e+04, 9.01561133e+03,
          5.70197314e+03, 6.45104639e+03, 2.07791426e+04, 2.28078931e+03,
          5.16578516e+03, 2.41914233e+03, 2.25574277e+04, 2.23492207e+04,
          2.28078931e+03, 3.22552319e+03, 2.66855234e+04, 4.56157861e+03,
          2.52437109e+03, 8.06380798e+02 ]
      - [ 2.84638086e+03, 1.44249780e+03, 0., 8.06380798e+02, 6120., 0.,
          0., 0., 0., 0., 0., 0., 2040., 1.14039465e+03, 2.94351709e+03,
          8.06380798e+02, 1.87391426e+04, 9.19117578e+03, 1.14039465e+03,
          8.06380798e+02, 8.06380798e+02, 0., 1.44249780e+03,
          8.06380798e+02, 7.73276172e+03, 3.00203809e+03, 0., 0.,
          9.77276172e+03, 0., 1.80312231e+03, 8.06380798e+02, 0., 0., 0.,
          0., 1.66991426e+04, 2.28078931e+03, 6.54976172e+03,
          1.61276160e+03, 0., 0., 0., 0., 6.92638086e+03, 0.,
          3.60624451e+02, 0., 1.52519043e+04, 9.79538184e+03,
          3.42118408e+03, 5.64466553e+03, 2.52863809e+04, 0.,
          4.44453613e+03, 2.41914233e+03, 2.21782852e+04, 2.04290547e+04,
          5.70197314e+03, 4.83828467e+03, 1.97591426e+04, 4.56157861e+03,
          2.16374683e+03, 8.06380798e+02 ]
      - [ 2.84638086e+03, 1.44249780e+03, 0., 8.06380798e+02, 14280., 0.,
          0., 0., 0., 3.60624451e+02, 0., 8.06380798e+02, 2.33638086e+03,
          0., 1.50101904e+03, 8.06380798e+02, 2.23919043e+04,
          9.91242383e+03, 3.42118408e+03, 4.03190405e+03, 6.92638086e+03,
          0., 1.44249780e+03, 8.06380798e+02, 7.73276172e+03,
          5.10726367e+03, 3.42118408e+03, 2.41914233e+03, 5.39638086e+03,
          2.28078931e+03, 2.16374683e+03, 0., 0., 0., 0., 0.,
          1.72091426e+04, 3.42118408e+03, 5.10726367e+03, 0., 0., 0., 0.,
          8.06380798e+02, 2.84638086e+03, 0., 3.60624451e+02, 0.,
          1.46591426e+04, 7.63163477e+03, 5.70197314e+03, 5.64466553e+03,
          2.90219043e+04, 0., 4.68811816e+03, 4.83828467e+03,
          2.76574277e+04, 1.05166309e+04, 6.84236816e+03, 8.06380811e+03,
          1.08755234e+04, 4.56157861e+03, 2.52437109e+03, 8.06380798e+02 ]
      - [ 8.06380798e+02, 3.30414136e+03, 1.14039465e+03, 8.06380798e+02,
          12240., 0., 0., 0., 0., 0., 0., 0., 0., 0., 1.50101904e+03,
          8.06380798e+02, 2.23919043e+04, 8.41140527e+03, 3.42118408e+03,
          4.83828467e+03, 4.88638086e+03, 1.14039465e+03, 3.30414136e+03,
          8.06380798e+02, 7.73276172e+03, 4.74663916e+03, 1.14039465e+03,
          1.61276160e+03, 1.30463809e+04, 1.14039465e+03, 1.80312231e+03,
          0., 0., 0., 0., 0., 1.66991426e+04, 2.28078931e+03,
          3.66476587e+03, 1.61276160e+03, 0., 0., 0., 0., 0., 0., 0., 0.,
          1.46591426e+04, 9.43475684e+03, 6.84236816e+03, 9.67656934e+03,
          1.99246660e+04, 3.42118408e+03, 8.29436230e+03, 3.22552319e+03,
          2.52382852e+04, 1.19591289e+04, 5.70197314e+03, 8.06380811e+03,
          1.66991426e+04, 0., 4.32749365e+03, 2.41914233e+03 ]
      - [ 2.84638086e+03, 3.30414136e+03, 1.14039465e+03, 8.06380798e+02,
          5.69276172e+03, 2.28078931e+03, 7.21248901e+02, 0., 0., 0., 0.,
          0., 0., 0., 0., 0., 1.26191426e+04, 1.12964004e+04,
          3.42118408e+03, 3.22552319e+03, 2.84638086e+03, 0.,
          1.44249780e+03, 8.06380798e+02, 4.88638086e+03, 1.80312231e+03,
          1.14039465e+03, 1.61276160e+03, 2.15855234e+04, 2.28078931e+03,
          3.60624463e+03, 1.61276160e+03, 0., 0., 0., 0., 2.07791426e+04,
          2.28078931e+03, 2.16374683e+03, 8.06380798e+02, 0., 0., 0., 0.,
          0., 0., 0., 0., 2.84638086e+03, 1.08772549e+04, 6.84236816e+03,
          4.83828467e+03, 3.09791445e+04, 1.14039465e+03, 6.18913721e+03,
          2.41914233e+03, 1.38527617e+04, 2.06726367e+04, 1.02635518e+04,
          7.25742725e+03, 4.36463828e+04, 0., 7.32953174e+03,
          2.41914233e+03 ]
      - [ 8.06380798e+02, 3.30414136e+03, 1.14039465e+03, 8.06380798e+02,
          4080., 0., 0., 0., 0., 0., 0., 0., 0., 0., 0., 0.,
          3.90082852e+04, 6.72532520e+03, 0., 0., 2.63276172e+03, 0.,
          5.82851270e+03, 2.41914233e+03, 3.50591406e+04, 5.82851270e+03,
          0., 1.61276160e+03, 2.84638086e+03, 0., 1.08092373e+04,
          7.25742725e+03, 0., 7.21248901e+02, 2.28078931e+03,
          1.61276160e+03, 1.21919043e+04, 4.56157861e+03, 2.88499561e+03,
          8.06380798e+02, 0., 3.60624451e+02, 0., 8.06380798e+02,
          3.86638086e+03, 0., 3.60624451e+02, 0., 2.94491426e+04,
          9.07413281e+03, 1.14039465e+03, 2.41914233e+03, 8.96638086e+03,
          1.14039465e+03, 1.22517344e+04, 4.83828467e+03, 3.87119023e+04,
          1.39378145e+04, 3.42118408e+03, 2.41914233e+03, 4.67276172e+03,
          0., 1.32165654e+04, 5.64466553e+03 ]
      - [ 18360., 0., 0., 0., 1.61276160e+03, 1.14039465e+03,
          2.94351709e+03, 1.61276160e+03, 8.75276172e+03, 4.44453613e+03,
          1.14039465e+03, 0., 8.06380798e+02, 0., 1.44249780e+03,
          8.06380798e+02, 1.50382852e+04, 8.77202930e+03, 0.,
          3.22552319e+03, 2.84638086e+03, 1.14039465e+03, 3.66476587e+03,
          8.06380798e+02, 1.18127617e+04, 4.74663916e+03, 1.14039465e+03,
          1.61276160e+03, 1.05310469e+04, 2.28078931e+03, 1.23782744e+04,
          6.45104639e+03, 1.10063809e+04, 1.80312231e+03, 2.28078931e+03,
          2.41914233e+03, 2.41914233e+03, 1.14039465e+03, 3.60624463e+03,
          1.61276160e+03, 1.36391426e+04, 4.32749365e+03, 0.,
          3.22552319e+03, 3.43914233e+03, 0., 4.32749365e+03,
          2.41914233e+03, 1.13855234e+04, 6.54976172e+03, 2.28078931e+03,
          4.03190405e+03, 1.86910469e+04, 5.70197314e+03, 1.15985039e+04,
          3.22552319e+03, 1.99246660e+04, 1.45420215e+04, 4.56157861e+03,
          7.25742725e+03, 2.23919043e+04, 5.70197314e+03, 9.13265430e+03,
          1.61276160e+03 ]
      - [ 0., 3.60624463e+03, 2.28078931e+03, 1.61276160e+03, 2040., 0.,
          0., 0., 0., 0., 0., 0., 0., 0., 0., 0., 3.42046641e+04,
          1.09357764e+04, 2.28078931e+03, 5.64466553e+03, 5.69276172e+03,
          0., 7.38805322e+03, 4.03190405e+03, 1.95455234e+04,
          8.05078076e+03, 2.28078931e+03, 3.22552319e+03, 4.83828467e+03,
          0., 1.16570254e+04, 6.45104639e+03, 0., 0., 0., 0.,
          1.91663809e+04, 1.14039465e+03, 3.30414136e+03, 8.06380798e+02,
          0., 0., 0., 0., 0., 0., 0., 0., 2.56655234e+04, 6.49124023e+03,
          3.42118408e+03, 5.64466553e+03, 2.47629512e+04, 6.84236816e+03,
          1.80897441e+04, 6.45104639e+03, 3.25438086e+04, 1.49026455e+04,
          2.28078931e+03, 8.06380811e+03, 2.15374277e+04, 5.70197314e+03,
          1.04581094e+04, 3.22552319e+03 ]
      - [ 0., 0., 0., 0., 0., 0., 0., 0., 0., 0., 0., 0., 0., 0., 0., 0.,
          3.37774258e+04, 1.49611670e+04, 1.14039465e+03, 5.64466553e+03,
          8.53914258e+03, 2.28078931e+03, 4.74663916e+03, 1.61276160e+03,
          2.43491426e+04, 8.05078076e+03, 2.28078931e+03, 2.41914233e+03,
          3.22552319e+03, 0., 8.77202930e+03, 4.83828467e+03, 0.,
          3.60624451e+02, 0., 8.06380798e+02, 5.90638086e+03, 0.,
          3.60624451e+02, 0., 0., 0., 0., 0., 0., 0., 0., 0.,
          2.23919043e+04, 7.99225928e+03, 4.56157861e+03, 5.64466553e+03,
          2.17029512e+04, 4.56157861e+03, 1.88109941e+04, 8.87018848e+03,
          3.14410469e+04, 1.12964014e+04, 0., 4.83828467e+03,
          2.88910469e+04, 2.28078931e+03, 1.08772549e+04, 5.64466553e+03 ]
      - [ 1.61276160e+03, 2.88499561e+03, 0., 1.61276160e+03, 4080., 0.,
          0., 0., 0., 0., 0., 0., 0., 0., 0., 0., 3.21646660e+04,
          1.09357764e+04, 2.28078931e+03, 5.64466553e+03, 3.22552319e+03,
          2.28078931e+03, 8.10930176e+03, 4.03190405e+03, 1.75055234e+04,
          8.05078076e+03, 2.28078931e+03, 3.22552319e+03, 5.64466553e+03,
          0., 1.30995234e+04, 7.25742725e+03, 0., 7.21248901e+02,
          2.28078931e+03, 1.61276160e+03, 1.54655234e+04, 2.28078931e+03,
          3.60624463e+03, 1.61276160e+03, 0., 0., 0., 0., 0., 0., 0., 0.,
          2.03519043e+04, 8.35288379e+03, 4.56157861e+03, 6.45104639e+03,
          2.51901895e+04, 4.56157861e+03, 1.44249785e+04, 5.64466553e+03,
          3.66238086e+04, 1.45420215e+04, 1.14039465e+03, 7.25742725e+03,
          2.78710469e+04, 2.28078931e+03, 1.08772549e+04, 5.64466553e+03 ]
      - [ 1.61276160e+03, 3.60624463e+03, 2.28078931e+03, 3.22552319e+03,
          4080., 0., 0., 0., 0., 3.60624451e+02, 0., 0., 0., 0., 0., 0.,
          3.21646660e+04, 1.02145273e+04, 0., 4.03190405e+03,
          1.61276160e+03, 2.28078931e+03, 1.09942979e+04, 2.41914233e+03,
          1.75055234e+04, 1.27388984e+04, 0., 1.61276160e+03,
          9.51104688e+03, 2.28078931e+03, 1.20176494e+04, 7.25742725e+03,
          0., 0., 0., 0., 2.07791426e+04, 2.28078931e+03, 5.04874268e+03,
          8.06380798e+02, 0., 0., 0., 8.06380798e+02, 6.92638086e+03, 0.,
          3.60624451e+02, 0., 2.46455234e+04, 6.85186475e+03,
          4.56157861e+03, 6.45104639e+03, 2.72782852e+04, 0.,
          1.45420215e+04, 6.45104639e+03, 3.29710469e+04, 1.71249141e+04,
          4.56157861e+03, 6.45104639e+03, 2.48110469e+04, 2.28078931e+03,
          9.37623633e+03, 4.83828467e+03 ]
      - [ 6.49914258e+03, 5.04874268e+03, 2.28078931e+03, 4.03190405e+03,
          4080., 0., 0., 0., 8.06380798e+02, 5.82851270e+03, 0., 0., 0.,
          0., 0., 0., 3.05038086e+04, 4.44453613e+03, 0., 3.22552319e+03,
          7.73276172e+03, 1.14039465e+03, 4.74663916e+03, 1.61276160e+03,
          2.12063809e+04, 8.71350879e+03, 0., 0., 1.25710469e+04,
          1.14039465e+03, 1.34601475e+04, 7.25742725e+03, 0., 0., 0., 0.,
          2.26055234e+04, 1.14039465e+03, 6.18913721e+03, 3.22552319e+03,
          3060., 3.60624451e+02, 1.14039465e+03, 8.06380798e+02,
          1.46591426e+04, 0., 4.32749365e+03, 2.41914233e+03,
          1.87391426e+04, 1.05751523e+04, 5.70197314e+03, 4.83828467e+03,
          2.60446660e+04, 1.14039465e+03, 1.19591289e+04, 5.64466553e+03,
          2.56174277e+04, 2.07896797e+04, 5.70197314e+03, 8.06380811e+03,
          2.27710469e+04, 7.98276270e+03, 5.46788818e+03, 1.61276160e+03 ]
      - [ 8.06380798e+02, 1.15985039e+04, 0., 0., 0., 0., 0., 0.,
          8.06380798e+02, 3.60624451e+02, 0., 0., 0., 0., 0., 0.,
          3.19991426e+04, 1.02730488e+04, 0., 0., 0., 0., 5.88703418e+03,
          1.61276160e+03, 2.20127617e+04, 5.58493066e+03, 0., 0.,
          1.61276160e+03, 1.14039465e+03, 1.62186035e+04, 6.45104639e+03,
          0., 3.60624451e+02, 1.14039465e+03, 8.06380798e+02,
          1.50863809e+04, 0., 1.02145273e+04, 2.41914233e+03, 0.,
          1.08187341e+03, 0., 8.06380798e+02, 1.30463809e+04, 0.,
          1.44249780e+03, 8.06380798e+02, 1.99727617e+04, 1.52632695e+04,
          2.28078931e+03, 1.61276160e+03, 1.50382852e+04, 6.84236816e+03,
          1.40548574e+04, 4.83828467e+03, 2.94838086e+04, 2.82362539e+04,
          1.14039465e+03, 8.06380798e+02, 1.36391426e+04, 3.42118408e+03,
          9.91242383e+03, 2.41914233e+03 ]
      - [ 0., 3.60624451e+02, 0., 0., 0., 0., 0., 0., 0., 0., 0., 0., 0.,
          0., 0., 0., 3.38255234e+04, 2.15109277e+04, 0., 0., 0., 0.,
          4.08391162e+03, 1.61276160e+03, 2.55827617e+04, 5.88703418e+03,
          0., 0., 0., 0., 8.88907227e+03, 3.22552319e+03, 0., 0., 0.,
          8.06380798e+02, 7.94638086e+03, 0., 3.60624451e+02, 0., 0., 0.,
          0., 0., 0., 0., 0., 0., 2.20127617e+04, 1.38207725e+04,
          2.28078931e+03, 8.06380798e+02, 1.11719043e+04, 5.70197314e+03,
          2.39087598e+04, 7.25742725e+03, 2.94010469e+04, 1.66377500e+04,
          1.14039465e+03, 1.61276160e+03, 1.91182852e+04, 5.70197314e+03,
          9.19117578e+03, 3.22552319e+03 ]
      - [ 4.45914258e+03, 1.17155469e+04, 0., 0., 0., 0., 0., 0.,
          8.06380798e+02, 2.94351709e+03, 0., 0., 0., 0., 0., 0.,
          2.60927617e+04, 1.16570254e+04, 0., 0., 0., 0., 5.88703418e+03,
          1.61276160e+03, 2.12063809e+04, 2.94351709e+03, 0., 0.,
          8.06380798e+02, 1.14039465e+03, 2.08482012e+04, 4.03190405e+03,
          0., 3.60624451e+02, 1.14039465e+03, 8.06380798e+02,
          1.30463809e+04, 1.14039465e+03, 1.19591289e+04, 8.06380798e+02,
          4080., 3.24562012e+03, 1.14039465e+03, 8.06380798e+02,
          8.96638086e+03, 1.14039465e+03, 6.18913721e+03, 8.06380798e+02,
          1.99727617e+04, 1.23782744e+04, 2.28078931e+03, 1.61276160e+03,
          1.86910469e+04, 6.84236816e+03, 1.10528184e+04, 4.83828467e+03,
          2.76574277e+04, 2.59554648e+04, 3.42118408e+03, 4.83828467e+03,
          1.21919043e+04, 5.70197314e+03, 1.05166309e+04, 8.06380798e+02 ]
      - [ 0., 1.80312231e+03, 1.14039465e+03, 8.06380798e+02, 0., 0., 0.,
          0., 0., 0., 0., 0., 0., 0., 0., 0., 3.42046641e+04,
          1.91621211e+04, 0., 0., 8.06380798e+02, 0., 4.38601465e+03,
          1.61276160e+03, 2.40527617e+04, 5.88703418e+03, 0., 0., 0., 0.,
          1.17740684e+04, 3.22552319e+03, 0., 0., 0., 0., 1.71263809e+04,
          1.14039465e+03, 1.80312231e+03, 0., 0., 0., 0., 0., 0., 0., 0.,
          0., 2.26055234e+04, 1.09942979e+04, 3.42118408e+03,
          2.41914233e+03, 1.03655234e+04, 5.70197314e+03, 2.34896152e+04,
          5.64466553e+03, 3.15719043e+04, 1.68813320e+04, 2.28078931e+03,
          1.61276160e+03, 1.95455234e+04, 4.56157861e+03, 1.02145273e+04,
          1.61276160e+03 ]
      - [ 14280., 0., 0., 0., 0., 0., 2.94351709e+03, 8.06380798e+02,
          1.04963809e+04, 1.14039465e+03, 0., 0., 0., 0., 5.88703418e+03,
          1.61276160e+03, 1.54655234e+04, 8.77202930e+03, 0.,
          1.61276160e+03, 0., 0., 2.94351709e+03, 8.06380798e+02,
          1.30463809e+04, 2.94351709e+03, 0., 0., 8.06380798e+02,
          1.14039465e+03, 1.50782090e+04, 4.03190405e+03, 1.10063809e+04,
          8.71350879e+03, 1.14039465e+03, 0., 3.22552319e+03,
          5.70197314e+03, 1.44249780e+03, 0., 1.55963809e+04,
          7.63163477e+03, 0., 0., 0., 0., 1.50101904e+03, 8.06380798e+02,
          1.30463809e+04, 2.52437109e+03, 2.28078931e+03, 3.22552319e+03,
          1.34255234e+04, 1.14039465e+03, 9.61032129e+03, 4.83828467e+03,
          1.66510469e+04, 1.69398535e+04, 2.28078931e+03, 3.22552319e+03,
          2.07791426e+04, 3.42118408e+03, 6.91038623e+03, 8.06380798e+02 ]
      - [ 1.71263809e+04, 1.50101904e+03, 0., 0., 0., 0., 2.58289258e+03,
          8.06380798e+02, 1.15163809e+04, 2.58289258e+03, 0., 0., 0., 0.,
          1.50101904e+03, 8.06380798e+02, 1.66991426e+04, 1.02730488e+04,
          0., 0., 0., 0., 3.30414136e+03, 8.06380798e+02, 1.38527617e+04,
          3.00203809e+03, 0., 0., 2.41914233e+03, 1.14039465e+03,
          1.50782090e+04, 5.64466553e+03, 9.55914258e+03, 4.50305713e+03,
          0., 0., 8.06380798e+02, 1.14039465e+03, 2.22226807e+03,
          8.06380798e+02, 1.55963809e+04, 4.74663916e+03, 1.14039465e+03,
          0., 6120., 0., 4.08391162e+03, 2.41914233e+03, 1.10063809e+04,
          1.01560059e+04, 1.14039465e+03, 8.06380798e+02, 1.75055234e+04,
          4.56157861e+03, 1.29729834e+04, 4.83828467e+03, 1.42319043e+04,
          2.22906992e+04, 2.28078931e+03, 1.61276160e+03, 2.07791426e+04,
          3.42118408e+03, 6.91038623e+03, 8.06380798e+02 ]
      - [ 0., 4.32749365e+03, 0., 0., 0., 0., 0., 0., 0., 0., 0., 0., 0.,
          0., 0., 0., 3.38255234e+04, 1.75440586e+04, 0., 0., 0., 0.,
          5.88703418e+03, 1.61276160e+03, 2.40527617e+04, 5.88703418e+03,
          0., 0., 0., 0., 1.18911104e+04, 4.83828467e+03, 0.,
          3.60624451e+02, 1.14039465e+03, 8.06380798e+02, 1.58927627e+04,
          0., 2.88499561e+03, 1.61276160e+03, 0., 0., 0., 0., 0., 0., 0.,
          0., 1.99727617e+04, 1.45420215e+04, 1.14039465e+03,
          8.06380798e+02, 1.91182852e+04, 5.70197314e+03, 1.81387695e+04,
          7.25742725e+03, 2.96974277e+04, 2.06631406e+04, 1.14039465e+03,
          1.61276160e+03, 1.95455234e+04, 3.42118408e+03, 1.13549219e+04,
          3.22552319e+03 ]
      - [ 0., 3.60624451e+02, 0., 8.06380798e+02, 1.02000006e+03, 0., 0.,
          0., 0., 0., 0., 0., 0., 0., 0., 0., 3.21646660e+04,
          1.61600830e+04, 5.70197314e+03, 4.83828467e+03, 1.82638086e+03,
          1.14039465e+03, 7.38805322e+03, 3.22552319e+03, 1.48727617e+04,
          1.16570254e+04, 0., 0., 1.61276160e+03, 1.14039465e+03,
          9.24969629e+03, 4.03190405e+03, 0., 0., 0., 0., 8.96638086e+03,
          0., 3.60624451e+02, 0., 0., 0., 0., 0., 0., 0., 0., 0.,
          1.64855234e+04, 7.99225928e+03, 3.42118408e+03, 4.03190405e+03,
          2.36255234e+04, 4.56157861e+03, 1.89185391e+04, 8.06380811e+03,
          2.97455234e+04, 9.61032129e+03, 2.28078931e+03, 1.61276160e+03,
          2.11582852e+04, 4.56157861e+03, 1.00974854e+04, 1.61276160e+03 ]
      - [ 1.18127617e+04, 3.00203809e+03, 0., 0., 0., 0., 5.46788818e+03,
          8.06380798e+02, 6.49914258e+03, 4.44453613e+03, 0.,
          8.06380798e+02, 8.06380798e+02, 0., 4.44453613e+03,
          2.41914233e+03, 1.75055234e+04, 7.74867773e+03, 1.14039465e+03,
          1.61276160e+03, 1.61276160e+03, 1.14039465e+03, 2.16374683e+03,
          8.06380798e+02, 1.10063809e+04, 5.82851270e+03, 0., 0.,
          4.83828467e+03, 5.70197314e+03, 1.49611670e+04, 3.22552319e+03,
          3.86638086e+03, 9.79538184e+03, 0., 0., 3.35638086e+03,
          1.14039465e+03, 1.86164355e+03, 8.06380798e+02, 1.71263809e+04,
          1.50101904e+03, 0., 0., 1.56791426e+04, 0., 2.88499561e+03,
          2.41914233e+03, 7.73276172e+03, 5.46788818e+03, 2.28078931e+03,
          2.41914233e+03, 1.53827617e+04, 2.28078931e+03, 9.61032129e+03,
          3.22552319e+03, 1.79327617e+04, 1.74270176e+04, 4.56157861e+03,
          3.22552319e+03, 2.44319043e+04, 4.56157861e+03, 4.38601465e+03,
          1.61276160e+03 ]
      - [ 1.50863809e+04, 4.38601465e+03, 0., 0., 1.61276160e+03,
          1.14039465e+03, 4.38601465e+03, 8.06380798e+02, 5.47914258e+03,
          4.38601465e+03, 0., 1.61276160e+03, 1020., 0., 1.50101904e+03,
          8.06380798e+02, 1.44455234e+04, 6.18913721e+03, 1.14039465e+03,
          3.22552319e+03, 3.43914233e+03, 2.28078931e+03, 2.52437109e+03,
          1.61276160e+03, 1.10063809e+04, 6.18913721e+03, 1.14039465e+03,
          8.06380798e+02, 6.87828467e+03, 4.56157861e+03, 1.46590635e+04,
          4.83828467e+03, 6.49914258e+03, 4.50305713e+03, 0., 0., 0., 0.,
          7.63163477e+03, 1.61276160e+03, 1.18127617e+04, 3.36266260e+03,
          1.14039465e+03, 8.06380798e+02, 1.26191426e+04, 2.28078931e+03,
          3.66476587e+03, 1.61276160e+03, 9.34552344e+03, 1.01560059e+04,
          0., 2.41914233e+03, 2.36255234e+04, 3.42118408e+03,
          1.53217910e+04, 2.41914233e+03, 1.29982852e+04, 1.97663281e+04,
          6.84236816e+03, 5.64466553e+03, 1.91182852e+04, 5.70197314e+03,
          1.19006074e+04, 8.06380798e+02 ]
      - [ 0., 0., 0., 0., 0., 0., 0., 0., 0., 0., 0., 0., 0., 0., 0., 0.,
          3.38255234e+04, 1.70663926e+04, 3.42118408e+03, 4.03190405e+03,
          5.26552344e+03, 3.42118408e+03, 6.54976172e+03, 2.41914233e+03,
          1.69127617e+04, 1.08772549e+04, 2.28078931e+03, 2.41914233e+03,
          1.61276160e+03, 0., 1.01560059e+04, 2.41914233e+03, 0., 0., 0.,
          0., 0., 0., 0., 0., 0., 0., 0., 0., 0., 0., 0., 0.,
          1.52519043e+04, 1.24953164e+04, 3.42118408e+03, 2.41914233e+03,
          3.81538086e+04, 4.56157861e+03, 2.29534258e+04, 7.25742725e+03,
          2.37082852e+04, 1.47175850e+04, 3.42118408e+03, 4.03190405e+03,
          2.17510469e+04, 6.84236816e+03, 1.23197529e+04, 2.41914233e+03 ]
      - [ 0., 3.60624451e+02, 0., 8.06380798e+02, 2040., 0., 0., 0., 0.,
          0., 0., 0., 0., 0., 0., 0., 3.05519043e+04, 1.93471816e+04,
          2.28078931e+03, 1.61276160e+03, 5.26552344e+03, 1.14039465e+03,
          1.05166309e+04, 3.22552319e+03, 1.54655234e+04, 9.01561133e+03,
          1.14039465e+03, 4.03190405e+03, 3.22552319e+03, 1.14039465e+03,
          1.20176494e+04, 4.03190405e+03, 0., 3.60624451e+02,
          1.14039465e+03, 0., 8.45638086e+03, 1.14039465e+03,
          7.21248901e+02, 0., 0., 0., 0., 0., 0., 0., 0., 0.,
          1.85255234e+04, 9.19117578e+03, 5.70197314e+03, 5.64466553e+03,
          3.14410469e+04, 3.42118408e+03, 2.41523418e+04, 8.87018848e+03,
          2.31982852e+04, 1.76025801e+04, 1.14039465e+03, 2.41914233e+03,
          2.88082852e+04, 4.56157861e+03, 8.77202930e+03, 3.22552319e+03 ]
      - [ 1.58927617e+04, 5.88703418e+03, 0., 0., 1.61276160e+03, 0.,
          4.02539038e+03, 2.41914233e+03, 2.84638086e+03, 4.68811816e+03,
          1.14039465e+03, 1.61276160e+03, 0., 0., 0., 0., 1.56791426e+04,
          8.71350879e+03, 0., 1.61276160e+03, 3.43914233e+03,
          2.28078931e+03, 4.02539038e+03, 1.61276160e+03, 1.10063809e+04,
          6.18913721e+03, 1.14039465e+03, 8.06380798e+02, 8.11190381e+03,
          3.42118408e+03, 1.42984395e+04, 4.83828467e+03, 8.96638086e+03,
          1.50101904e+03, 0., 0., 1.61276160e+03, 0., 6.24765820e+03,
          3.22552319e+03, 1.10063809e+04, 1.86164355e+03, 1.14039465e+03,
          8.06380798e+02, 1.26191426e+04, 2.28078931e+03, 2.16374683e+03,
          8.06380798e+02, 8.53914258e+03, 1.23782744e+04, 2.28078931e+03,
          2.41914233e+03, 2.37082852e+04, 3.42118408e+03, 1.49026455e+04,
          3.22552319e+03, 1.02346660e+04, 2.71543809e+04, 5.70197314e+03,
          4.03190405e+03, 2.25574277e+04, 4.56157861e+03, 8.65498730e+03,
          4.03190405e+03 ]
      - [ 8.96638086e+03, 1.50101904e+03, 0., 0., 0., 0., 2.94351709e+03,
          8.06380798e+02, 8.45638086e+03, 1.14039465e+03, 0., 0., 0., 0.,
          8.88907227e+03, 3.22552319e+03, 1.54655234e+04, 8.77202930e+03,
          0., 1.61276160e+03, 8.06380798e+02, 1.14039465e+03,
          3.30414136e+03, 8.06380798e+02, 8.96638086e+03, 5.82851270e+03,
          0., 0., 2.41914233e+03, 3.42118408e+03, 9.79538184e+03,
          8.06380798e+02, 6.49914258e+03, 9.19117578e+03, 1.14039465e+03,
          8.06380798e+02, 6.49914258e+03, 3.42118408e+03, 5.46788818e+03,
          8.06380798e+02, 9.85552344e+03, 1.21346924e+04, 0., 0., 0., 0.,
          4.38601465e+03, 8.06380798e+02, 8.96638086e+03, 5.04874268e+03,
          2.28078931e+03, 2.41914233e+03, 9.77276172e+03, 2.28078931e+03,
          1.24953164e+04, 3.22552319e+03, 1.05791426e+04, 1.45420215e+04,
          4.56157861e+03, 4.03190405e+03, 2.11582852e+04, 5.70197314e+03,
          6.13061572e+03, 8.06380798e+02 ]
      - [ 1.10063809e+04, 1.50101904e+03, 0., 0., 0., 0., 2.94351709e+03,
          8.06380798e+02, 7.94638086e+03, 2.64141382e+03, 0., 0., 0., 0.,
          7.38805322e+03, 2.41914233e+03, 1.38527617e+04, 1.16570254e+04,
          0., 0., 1.61276160e+03, 1.14039465e+03, 1.80312231e+03,
          8.06380798e+02, 1.10063809e+04, 1.80312231e+03, 1.14039465e+03,
          1.61276160e+03, 3.22552319e+03, 4.56157861e+03, 8.77202930e+03,
          1.61276160e+03, 6.92638086e+03, 1.12378799e+04, 0., 0.,
          6.79552344e+03, 4.56157861e+03, 4.08391162e+03, 1.61276160e+03,
          9.93828516e+03, 1.07507158e+04, 0., 0., 0., 0., 4.38601465e+03,
          8.06380798e+02, 6.92638086e+03, 6.54976172e+03, 1.14039465e+03,
          8.06380798e+02, 1.51691426e+04, 1.14039465e+03, 9.49327832e+03,
          3.22552319e+03, 1.34255234e+04, 1.85674121e+04, 3.42118408e+03,
          3.22552319e+03, 2.15855234e+04, 2.28078931e+03, 9.43475781e+03,
          2.41914233e+03 ]
      - [ 1.10063809e+04, 1.50101904e+03, 0., 0., 0., 0., 4.44453613e+03,
          1.61276160e+03, 4.16276172e+03, 4.08391162e+03, 0., 0., 0., 0.,
          7.38805322e+03, 2.41914233e+03, 1.38527617e+04, 1.16570254e+04,
          0., 0., 8.06380798e+02, 1.14039465e+03, 3.30414136e+03,
          8.06380798e+02, 1.10063809e+04, 1.80312231e+03, 1.14039465e+03,
          1.61276160e+03, 3.22552319e+03, 4.56157861e+03, 8.77202930e+03,
          1.61276160e+03, 6.92638086e+03, 1.12378799e+04, 0., 0.,
          6.79552344e+03, 4.56157861e+03, 4.08391162e+03, 1.61276160e+03,
          1.00691426e+04, 1.20761709e+04, 0., 0., 0., 0., 4.38601465e+03,
          8.06380798e+02, 6.92638086e+03, 6.54976172e+03, 1.14039465e+03,
          8.06380798e+02, 1.47900010e+04, 0., 1.20176494e+04,
          1.61276160e+03, 1.18127617e+04, 2.03120117e+04, 4.56157861e+03,
          3.22552319e+03, 1.95455234e+04, 2.28078931e+03, 9.43475781e+03,
          2.41914233e+03 ]
      - [ 20400., 0., 0., 0., 0., 0., 3.60624451e+02, 8.06380798e+02,
          5100., 0., 0., 0., 0., 0., 0., 0., 4080., 3.24562012e+03,
          1.14039465e+03, 8.06380798e+02, 6.92638086e+03, 1.14039465e+03,
          3.60624451e+02, 0., 0., 0., 0., 0., 1.87391426e+04, 0.,
          4.32749365e+03, 2.41914233e+03, 0., 0., 0., 0., 1.54655234e+04,
          3.42118408e+03, 7.99225928e+03, 8.06380798e+02, 5100., 0., 0.,
          0., 0., 0., 0., 0., 1.26191426e+04, 8.41140527e+03,
          3.42118408e+03, 3.22552319e+03, 4.88638086e+03, 1.14039465e+03,
          6.36470068e+03, 3.22552319e+03, 2.07791426e+04, 9.91242383e+03,
          3.42118408e+03, 2.41914233e+03, 2.85119043e+04, 4.56157861e+03,
          2.88499561e+03, 8.06380798e+02 ]
      - [ 1.79327617e+04, 3.00203809e+03, 0., 0., 0., 0., 0., 0., 0., 0.,
          0., 0., 0., 0., 0., 0., 3.14063809e+04, 1.44249780e+03, 0.,
          8.06380798e+02, 8.16000049e+03, 0., 3.60624451e+02,
          8.06380798e+02, 5.90638086e+03, 3.60624451e+02, 0., 0.,
          6.92638086e+03, 1.14039465e+03, 3.30414136e+03, 8.06380798e+02,
          0., 0., 0., 0., 3.65276172e+03, 0., 2.88499561e+03,
          1.61276160e+03, 16320., 0., 0., 0., 0., 0., 0., 0.,
          1.26191426e+04, 6.54976172e+03, 2.28078931e+03, 3.22552319e+03,
          2.44319043e+04, 4.56157861e+03, 1.13549219e+04, 2.41914233e+03,
          3.28055234e+04, 9.91242383e+03, 0., 1.61276160e+03,
          3.50591445e+04, 3.42118408e+03, 4.02539038e+03, 8.06380798e+02 ]
      - [ 1.79327617e+04, 3.00203809e+03, 0., 0., 0., 0., 0., 0., 0., 0.,
          0., 0., 0., 0., 0., 0., 3.14063809e+04, 1.44249780e+03, 0.,
          8.06380798e+02, 8.16000049e+03, 0., 3.60624451e+02,
          8.06380798e+02, 5.90638086e+03, 3.60624451e+02, 0., 0.,
          6.92638086e+03, 1.14039465e+03, 3.30414136e+03, 8.06380798e+02,
          0., 0., 0., 0., 3.65276172e+03, 0., 4.38601465e+03,
          2.41914233e+03, 14280., 0., 0., 0., 0., 0., 0., 0.,
          1.26191426e+04, 6.18913721e+03, 1.14039465e+03, 2.41914233e+03,
          2.69819043e+04, 4.56157861e+03, 1.03900908e+04, 4.83828467e+03,
          2.93182852e+04, 9.97094531e+03, 0., 2.41914233e+03,
          3.50591445e+04, 2.28078931e+03, 5.04874268e+03, 8.06380798e+02 ]
      - [ 20400., 0., 0., 0., 0., 0., 3.00203809e+03, 1.61276160e+03,
          1.15991426e+04, 4.08391162e+03, 0., 0., 0., 0., 0., 0.,
          4.88638086e+03, 1.44249780e+03, 0., 8.06380798e+02,
          1.50863809e+04, 0., 1.44249780e+03, 8.06380798e+02, 0., 0., 0.,
          0., 2.20127617e+04, 1.14039465e+03, 1.06336729e+04,
          3.22552319e+03, 0., 0., 0., 0., 0., 0., 0., 0., 1020.,
          3.60624451e+02, 0., 8.06380798e+02, 1.32600010e+04, 0., 0., 0.,
          1.71263809e+04, 9.07413281e+03, 1.14039465e+03, 8.06380798e+02,
          3.05519043e+04, 2.28078931e+03, 1.09357764e+04, 4.03190405e+03,
          1.83119043e+04, 1.06336729e+04, 5.70197314e+03, 5.64466553e+03,
          2.68991445e+04, 2.28078931e+03, 2.16374683e+03, 8.06380798e+02 ]
      - [ 0., 3.60624451e+02, 0., 8.06380798e+02, 5100., 0., 0., 0., 0.,
          0., 0., 0., 0., 0., 0., 0., 2.89391426e+04, 4.08391162e+03, 0.,
          0., 5.90638086e+03, 0., 4.44453613e+03, 2.41914233e+03,
          1.05791426e+04, 4.44453613e+03, 0., 8.06380798e+02,
          1.10063809e+04, 1.14039465e+03, 3.30414136e+03, 8.06380798e+02,
          0., 0., 0., 0., 1.20263809e+04, 0., 3.60624451e+02, 0., 0., 0.,
          0., 0., 0., 0., 0., 0., 1.38527617e+04, 3.00203809e+03, 0., 0.,
          3.27574277e+04, 6.84236816e+03, 1.05751523e+04, 4.83828467e+03,
          1.87391426e+04, 4.44453613e+03, 0., 8.06380798e+02,
          3.95663828e+04, 1.14039465e+03, 7.69015625e+03, 1.61276160e+03 ]
      - [ 0., 3.60624451e+02, 0., 8.06380798e+02, 5.10000049e+03, 0., 0.,
          0., 0., 0., 0., 0., 0., 0., 0., 0., 2.89391426e+04,
          4.08391162e+03, 0., 0., 5.90638086e+03, 0., 4.44453613e+03,
          2.41914233e+03, 1.05791426e+04, 4.44453613e+03, 0.,
          8.06380798e+02, 1.10063809e+04, 1.14039465e+03, 3.30414136e+03,
          8.06380798e+02, 0., 0., 0., 0., 1.20263818e+04, 0.,
          3.60624451e+02, 0., 0., 0., 0., 0., 0., 0., 0., 0.,
          1.38527617e+04, 3.00203809e+03, 0., 0., 3.27574277e+04,
          6.84236816e+03, 1.05751523e+04, 4.83828467e+03, 1.87391426e+04,
          4.44453613e+03, 0., 8.06380798e+02, 3.95663828e+04,
          1.14039465e+03, 7.69015625e+03, 1.61276160e+03 ]
      - [ 6.92638086e+03, 3.30414136e+03, 1.14039465e+03, 8.06380798e+02,
          11220., 0., 3.60624451e+02, 8.06380798e+02, 1020.,
          1.80312231e+03, 1.14039465e+03, 8.06380798e+02, 2040., 0., 0.,
          0., 2.42663809e+04, 2.94351709e+03, 0., 0., 1.79327617e+04,
          2.28078931e+03, 6.24765820e+03, 5.64466553e+03, 1.89046660e+04,
          4.08391162e+03, 0., 0., 2.07791426e+04, 3.42118408e+03,
          5.10726367e+03, 1.61276160e+03, 0., 3.60624451e+02,
          1.14039465e+03, 8.06380798e+02, 1.95455234e+04, 3.42118408e+03,
          2.52437109e+03, 8.06380798e+02, 2.84638086e+03, 1.44249780e+03,
          0., 8.06380798e+02, 2.44800020e+04, 0., 0., 0., 1.05791426e+04,
          8.05078076e+03, 2.28078931e+03, 2.41914233e+03, 2.85119043e+04,
          4.56157861e+03, 8.77202930e+03, 2.41914233e+03, 2.17991426e+04,
          8.83055078e+03, 3.42118408e+03, 3.22552319e+03, 2.48591426e+04,
          2.28078931e+03, 5.16578516e+03, 2.41914233e+03 ]
      - [ 8.06380798e+02, 1.44249780e+03, 0., 8.06380798e+02,
          5.90638086e+03, 2.28078931e+03, 3.60624451e+02, 0., 0., 0., 0.,
          0., 0., 0., 0., 0., 2.91527617e+04, 3.36266260e+03, 0.,
          8.06380798e+02, 1.58927617e+04, 1.14039465e+03, 5.46788818e+03,
          4.83828467e+03, 1.97110469e+04, 6.24765820e+03, 0.,
          8.06380798e+02, 1.89527617e+04, 1.14039465e+03, 1.80312231e+03,
          8.06380798e+02, 0., 7.21248901e+02, 0., 8.06380798e+02,
          3.14276172e+03, 0., 1.08187329e+03, 0., 0., 0., 0., 0., 0., 0.,
          0., 0., 1.15991426e+04, 5.16578516e+03, 5.70197314e+03,
          3.22552319e+03, 3.38601914e+04, 1.02635518e+04, 1.09357764e+04,
          4.83828467e+03, 2.28191426e+04, 4.44453613e+03, 0.,
          8.06380798e+02, 3.54382852e+04, 5.70197314e+03, 6.24765820e+03,
          2.41914233e+03 ]
      - [ 2.84638086e+03, 3.30414136e+03, 1.14039465e+03, 8.06380798e+02,
          10710., 0., 3.60624451e+02, 0., 0., 0., 0., 0., 0., 0., 0., 0.,
          3.14063809e+04, 1.44249780e+03, 0., 8.06380798e+02,
          2.17163809e+04, 0., 4.74663916e+03, 4.83828467e+03,
          1.70782852e+04, 6.96890723e+03, 1.14039465e+03, 8.06380798e+02,
          2.01863809e+04, 0., 1.44249780e+03, 8.06380798e+02, 0.,
          7.21248901e+02, 2.28078931e+03, 1.61276160e+03, 1.62719043e+04,
          2.28078931e+03, 5.04874268e+03, 2.41914233e+03, 0., 0., 0., 0.,
          0., 0., 0., 0., 1.05791426e+04, 5.16578516e+03, 2.28078931e+03,
          2.41914233e+03, 3.01246660e+04, 4.56157861e+03, 8.77202930e+03,
          4.03190405e+03, 2.54519043e+04, 5.88703369e+03, 0.,
          2.41914233e+03, 3.52246680e+04, 6.84236816e+03, 6.60828271e+03,
          2.41914233e+03 ]
      - [ 0., 1.80312231e+03, 1.14039465e+03, 8.06380798e+02, 10200., 0.,
          0., 0., 0., 0., 0., 0., 0., 0., 0., 0., 3.01727617e+04,
          2.94351709e+03, 0., 8.06380798e+02, 2.01863809e+04,
          1.14039465e+03, 6.60828271e+03, 5.64466553e+03, 1.78846660e+04,
          4.74663916e+03, 0., 8.06380798e+02, 1.97591426e+04,
          2.28078931e+03, 2.16374683e+03, 8.06380798e+02, 0.,
          3.60624451e+02, 2.28078931e+03, 8.06380798e+02, 1.05791426e+04,
          4.56157861e+03, 1.08187329e+03, 0., 0., 0., 0., 0., 0., 0., 0.,
          0., 1.05791426e+04, 5.52640918e+03, 2.28078931e+03,
          3.22552319e+03, 3.62446680e+04, 4.56157861e+03, 1.05751523e+04,
          3.22552319e+03, 2.36255234e+04, 5.88703418e+03, 0.,
          1.61276160e+03, 3.91391445e+04, 2.28078931e+03, 5.16578516e+03,
          2.41914233e+03 ]
      - [ 20400., 0., 0., 0., 3.86638086e+03, 1.14039465e+03,
          5.16578516e+03, 2.41914233e+03, 1.59755234e+04, 3.36266260e+03,
          0., 0., 1530., 0., 0., 0., 4.88638086e+03, 1.44249780e+03, 0.,
          8.06380798e+02, 1.58100010e+04, 0., 1.08187329e+03,
          3.22552319e+03, 6.28552344e+03, 1.44249780e+03, 0., 0.,
          2.60927617e+04, 2.28078931e+03, 6.60828271e+03, 1.61276160e+03,
          0., 0., 0., 0., 1.38527617e+04, 2.28078931e+03, 7.21248901e+02,
          0., 0., 0., 0., 0., 0., 0., 0., 0., 1.05791426e+04,
          8.05078076e+03, 2.28078931e+03, 2.41914233e+03, 1.46591426e+04,
          2.28078931e+03, 8.05078076e+03, 2.41914233e+03, 2.07791426e+04,
          8.77202930e+03, 4.56157861e+03, 4.03190405e+03, 2.89391426e+04,
          2.28078931e+03, 5.16578516e+03, 2.41914233e+03 ]
      - [ 1.31638086e+03, 3.60624451e+02, 0., 1.61276160e+03, 11220., 0.,
          0., 0., 0., 0., 0., 0., 0., 0., 0., 0., 3.03863809e+04,
          1.86164355e+03, 0., 8.06380798e+02, 1.61063809e+04, 0.,
          3.24562012e+03, 4.83828467e+03, 2.11582852e+04, 5.10726367e+03,
          1.14039465e+03, 8.06380798e+02, 2.01863809e+04, 0.,
          1.44249780e+03, 8.06380798e+02, 8.06380798e+02, 1.44249780e+03,
          0., 8.06380798e+02, 5.69276172e+03, 0., 2.88499561e+03,
          1.61276160e+03, 0., 0., 0., 0., 0., 0., 0., 0., 1.44455234e+04,
          6.24765820e+03, 2.28078931e+03, 2.41914233e+03, 3.56038086e+04,
          5.70197314e+03, 1.19591289e+04, 4.83828467e+03, 2.20127617e+04,
          6.24765820e+03, 2.28078931e+03, 2.41914233e+03, 3.06346660e+04,
          7.98276270e+03, 5.46788818e+03, 8.06380798e+02 ]
      - [ 2.84638086e+03, 1.44249780e+03, 0., 8.06380798e+02, 6120., 0.,
          0., 0., 0., 0., 0., 0., 0., 0., 0., 0., 2.52863809e+04,
          1.44249780e+03, 0., 8.06380798e+02, 8.96638086e+03, 0.,
          1.44249780e+03, 8.06380798e+02, 1.30463809e+04, 1.44249780e+03,
          0., 8.06380798e+02, 1.58927617e+04, 0., 2.88499561e+03,
          1.61276160e+03, 0., 0., 0., 0., 2.12063809e+04, 0.,
          1.44249780e+03, 8.06380798e+02, 2040., 0., 0., 0., 0., 0., 0.,
          0., 1.50863809e+04, 2.16374683e+03, 2.28078931e+03,
          2.41914233e+03, 2.68991426e+04, 2.28078931e+03, 8.05078076e+03,
          2.41914233e+03, 1.70782852e+04, 9.61032129e+03, 2.28078931e+03,
          3.22552319e+03, 4.77263828e+04, 1.14039465e+03, 3.30414136e+03,
          8.06380798e+02 ]
      - [ 0., 3.60624451e+02, 0., 8.06380798e+02, 3060., 0., 0., 0., 0.,
          0., 0., 0., 0., 0., 0., 0., 2.60927617e+04, 2.52437134e+03, 0.,
          8.06380798e+02, 1.20263809e+04, 0., 1.44249780e+03,
          8.06380798e+02, 1.10063809e+04, 1.44249780e+03, 0.,
          8.06380798e+02, 1.58927617e+04, 0., 2.88499561e+03,
          1.61276160e+03, 0., 7.21248901e+02, 3.42118408e+03,
          8.06380798e+02, 7.43638135e+03, 2.28078931e+03, 2.16374683e+03,
          0., 0., 0., 0., 0., 0., 0., 0., 0., 1.50863809e+04,
          4.38601465e+03, 3.42118408e+03, 4.03190405e+03, 2.92355234e+04,
          2.28078931e+03, 9.66884180e+03, 4.83828467e+03, 1.50382852e+04,
          1.21932139e+04, 5.70197314e+03, 4.83828467e+03, 4.11791445e+04,
          2.28078931e+03, 2.16374683e+03, 8.06380798e+02 ]
      - [ 18360., 0., 0., 0., 8.06380798e+02, 0., 1.44249780e+03,
          8.06380798e+02, 1.04963809e+04, 1.14039465e+03, 0., 0., 0., 0.,
          1.50101904e+03, 8.06380798e+02, 2.84638086e+03, 1.44249780e+03,
          0., 8.06380798e+02, 8.16000049e+03, 0., 0., 0., 0., 0., 0., 0.,
          1.58927627e+04, 1.14039465e+03, 3.24562012e+03, 8.06380798e+02,
          0., 0., 0., 0., 1.42319043e+04, 5.70197314e+03, 3.24562012e+03,
          0., 510., 3.60624451e+02, 0., 0., 0., 0., 0., 0.,
          8.53914258e+03, 8.05078076e+03, 2.28078931e+03, 2.41914233e+03,
          8.16000049e+03, 0., 7.27101074e+03, 8.06380798e+02,
          1.46591426e+04, 1.16570254e+04, 4.56157861e+03, 4.03190405e+03,
          2.28191426e+04, 2.28078931e+03, 5.16578516e+03, 2.41914233e+03 ]
      - [ 20400., 0., 0., 0., 0., 0., 2.94351709e+03, 8.06380798e+02,
          1.04963809e+04, 1.14039465e+03, 0., 0., 0., 0., 0., 0.,
          2.84638086e+03, 1.44249780e+03, 0., 8.06380798e+02,
          8.16000049e+03, 0., 0., 0., 0., 0., 0., 0., 1.79327617e+04, 0.,
          2.88499561e+03, 1.61276160e+03, 0., 3.60624451e+02,
          1.14039465e+03, 8.06380798e+02, 1.13855234e+04, 4.56157861e+03,
          4.32749365e+03, 0., 510., 3.60624451e+02, 0., 0., 0., 0., 0.,
          0., 1.01519043e+04, 7.32953174e+03, 0., 2.41914233e+03,
          1.10063809e+04, 1.14039465e+03, 6.30617969e+03, 2.41914233e+03,
          1.21919043e+04, 1.17740674e+04, 4.56157861e+03, 4.03190405e+03,
          2.28191426e+04, 2.28078931e+03, 5.16578516e+03, 2.41914233e+03 ]
      - [ 20400., 0., 0., 0., 8.06380798e+02, 0., 1.44249780e+03,
          8.06380798e+02, 1.04963809e+04, 1.14039465e+03, 0., 0., 0., 0.,
          0., 0., 2.84638086e+03, 1.44249780e+03, 0., 8.06380798e+02,
          8.16000049e+03, 0., 0., 0., 0., 0., 0., 0., 1.79327617e+04, 0.,
          2.88499561e+03, 1.61276160e+03, 0., 0., 0., 0., 1.34255234e+04,
          4.56157861e+03, 4.32749365e+03, 0., 510., 3.60624451e+02, 0.,
          0., 0., 0., 0., 0., 8.53914258e+03, 8.05078076e+03,
          2.28078931e+03, 2.41914233e+03, 8.96638086e+03, 1.14039465e+03,
          6.30617969e+03, 2.41914233e+03, 1.26191426e+04, 1.16570254e+04,
          4.56157861e+03, 4.03190405e+03, 2.28191426e+04, 2.28078931e+03,
          5.16578516e+03, 2.41914233e+03 ]
      - [ 0., 1.80312231e+03, 1.14039465e+03, 8.06380798e+02, 6120., 0.,
          0., 0., 0., 0., 0., 0., 0., 0., 0., 0., 2.60927617e+04,
          2.94351709e+03, 0., 8.06380798e+02, 8.16000049e+03, 0.,
          2.94351709e+03, 8.06380798e+02, 8.96638086e+03, 1.44249780e+03,
          0., 8.06380798e+02, 1.79327617e+04, 0., 2.88499561e+03,
          1.61276160e+03, 0., 0., 0., 0., 2.12063809e+04, 0.,
          1.44249780e+03, 8.06380798e+02, 0., 0., 0., 0., 0., 0., 0., 0.,
          1.01519043e+04, 7.32953174e+03, 0., 2.41914233e+03,
          2.56655234e+04, 3.42118408e+03, 1.12964004e+04, 2.41914233e+03,
          1.54655234e+04, 1.49611670e+04, 5.70197314e+03, 4.83828467e+03,
          4.11791445e+04, 2.28078931e+03, 5.16578516e+03, 2.41914233e+03 ]
      - [ 0., 3.60624451e+02, 0., 8.06380798e+02, 3060., 0., 0., 0., 0.,
          0., 0., 0., 0., 0., 0., 0., 2.71127617e+04, 4.38601465e+03,
          1.14039465e+03, 8.06380798e+02, 1.12200010e+04, 0.,
          2.94351709e+03, 8.06380798e+02, 8.96638086e+03, 1.44249780e+03,
          0., 8.06380798e+02, 1.05791426e+04, 2.28078931e+03,
          3.24562012e+03, 1.61276160e+03, 0., 0., 0., 0., 1.10063809e+04,
          0., 3.60624451e+02, 0., 0., 0., 0., 0., 0., 0., 0., 0.,
          8.53914258e+03, 9.19117578e+03, 1.14039465e+03, 8.06380798e+02,
          3.38255234e+04, 4.56157861e+03, 1.41228750e+04, 1.61276160e+03,
          1.64855234e+04, 1.53217910e+04, 7.98276270e+03, 5.64466553e+03,
          3.19991426e+04, 2.28078931e+03, 5.16578516e+03, 2.41914233e+03 ]
      - [ 0., 0., 0., 0., 0., 0., 0., 0., 0., 0., 0., 0., 0., 0., 0., 0.,
          2.90565703e+04, 1.78951875e+04, 0., 1.61276160e+03,
          2.84638086e+03, 0., 1.44249780e+03, 8.06380798e+02,
          5.26552344e+03, 6.00407617e+03, 0., 0., 1.30463809e+04, 0.,
          1.44249780e+03, 8.06380798e+02, 0., 0., 0., 0., 0., 0., 0., 0.,
          0., 0., 0., 0., 0., 0., 0., 0., 2.79191426e+04, 4.32749365e+03,
          0., 2.41914233e+03, 2.36255234e+04, 1.14039465e+03,
          7.63163477e+03, 3.22552319e+03, 4.47838086e+04, 1.48931484e+04,
          0., 1.61276160e+03, 1.50863809e+04, 0., 1.44249780e+03,
          8.06380798e+02 ]
      - [ 8.06380798e+02, 3.60624451e+02, 0., 0., 0., 0., 0., 0., 0., 0.,
          0., 0., 0., 0., 0., 0., 2.82501895e+04, 1.75345625e+04, 0.,
          1.61276160e+03, 2.84638086e+03, 0., 1.44249780e+03,
          8.06380798e+02, 6.28552344e+03, 6.00407617e+03, 0., 0.,
          1.30463809e+04, 0., 1.44249780e+03, 8.06380798e+02, 0.,
          1.08187341e+03, 0., 8.06380798e+02, 4.88638086e+03, 0.,
          1.44249780e+03, 8.06380798e+02, 0., 0., 0., 0., 0., 0., 0., 0.,
          2.99591426e+04, 3.24562012e+03, 0., 1.61276160e+03,
          2.07791426e+04, 0., 4.32749365e+03, 2.41914233e+03,
          4.98838086e+04, 1.48931484e+04, 0., 1.61276160e+03,
          1.50863809e+04, 0., 2.94351709e+03, 1.61276160e+03 ]
      - [ 1.54655234e+04, 5.88703418e+03, 0., 1.61276160e+03, 0., 0., 0.,
          0., 1.82638086e+03, 1.86164355e+03, 0., 0., 0., 0., 0., 0.,
          1.50382852e+04, 8.64549023e+03, 0., 0., 7.73276172e+03,
          1.14039465e+03, 2.52437109e+03, 8.06380798e+02, 1.24882852e+04,
          7.02742871e+03, 0., 1.61276160e+03, 1.50863809e+04, 0.,
          1.44249780e+03, 8.06380798e+02, 2.84638086e+03, 1.44249780e+03,
          0., 8.06380798e+02, 2.84638086e+03, 0., 1.44249780e+03,
          8.06380798e+02, 1.44455234e+04, 5.52640967e+03, 0.,
          1.61276160e+03, 0., 0., 0., 0., 2.20127617e+04, 2.94351709e+03,
          0., 8.06380798e+02, 1.80982852e+04, 3.42118408e+03,
          4.68811816e+03, 4.03190405e+03, 1.99727617e+04, 7.57311377e+03,
          9.12315723e+03, 8.06380811e+03, 6.49914258e+03, 2.28078931e+03,
          6.60828271e+03, 2.41914233e+03 ]
      - [ 8.06380798e+02, 1.86164355e+03, 0., 0., 0., 0., 0., 0., 0., 0.,
          0., 0., 0., 0., 0., 0., 3.74301875e+04, 1.56729189e+04, 0.,
          1.61276160e+03, 7.94638086e+03, 0., 1.80312231e+03,
          1.61276160e+03, 1.07446660e+04, 8.88907227e+03, 0.,
          1.61276160e+03, 1.40663809e+04, 0., 1.44249780e+03,
          8.06380798e+02, 0., 7.21248901e+02, 0., 8.06380798e+02,
          2.12276172e+03, 1.14039465e+03, 1.80312231e+03, 8.06380798e+02,
          0., 0., 0., 0., 0., 0., 0., 0., 2.20127617e+04, 3.24562012e+03,
          0., 1.61276160e+03, 2.08619043e+04, 1.14039465e+03,
          6.54976172e+03, 4.83828467e+03, 4.05382852e+04, 1.28559414e+04,
          3.42118408e+03, 4.03190405e+03, 1.15163818e+04, 0.,
          4.08391162e+03, 1.61276160e+03 ]
      - [ 0., 1.80312231e+03, 0., 0., 0., 0., 0., 0., 0., 0., 0., 0., 0.,
          0., 0., 0., 2.70165703e+04, 2.15599531e+04, 0., 1.61276160e+03,
          5.90638086e+03, 1.14039465e+03, 1.80312231e+03, 0.,
          1.01519043e+04, 7.38805322e+03, 0., 1.61276160e+03,
          1.61063809e+04, 1.14039465e+03, 2.94351709e+03, 0., 0., 0.,
          1.14039465e+03, 8.06380798e+02, 8.06380798e+02, 1.14039465e+03,
          1.80312231e+03, 0., 0., 0., 0., 0., 0., 0., 0., 0.,
          2.20127617e+04, 6.96890723e+03, 2.28078931e+03, 1.61276160e+03,
          1.42319043e+04, 0., 8.71350879e+03, 4.83828467e+03,
          3.90910469e+04, 1.84993926e+04, 2.28078931e+03, 1.61276160e+03,
          4.88638086e+03, 1.14039465e+03, 3.30414136e+03, 8.06380798e+02 ]
      - [ 0., 3.60624451e+02, 0., 0., 0., 0., 0., 0., 0., 0., 0., 0., 0.,
          0., 0., 0., 2.90565703e+04, 2.00004121e+04, 0., 3.22552319e+03,
          7.94638086e+03, 0., 1.44249780e+03, 8.06380798e+02,
          7.89828467e+03, 8.88907227e+03, 0., 1.61276160e+03,
          1.81463809e+04, 0., 1.08187341e+03, 0., 0., 0., 0.,
          8.06380798e+02, 8.06380798e+02, 0., 3.60624451e+02, 0., 0., 0.,
          0., 0., 0., 0., 0., 0., 1.99727617e+04, 5.10726367e+03,
          2.28078931e+03, 1.61276160e+03, 1.62719043e+04, 1.14039465e+03,
          1.01560059e+04, 4.83828467e+03, 3.80710469e+04, 1.37527539e+04,
          1.14039465e+03, 1.61276160e+03, 1.10063818e+04, 0.,
          1.44249780e+03, 8.06380798e+02 ]
      - [ 1.42319043e+04, 7.38805322e+03, 0., 1.61276160e+03, 0., 0., 0.,
          0., 2.84638086e+03, 1.86164355e+03, 0., 0., 0., 0., 0., 0.,
          1.13855234e+04, 7.02742871e+03, 0., 1.61276160e+03,
          1.82638086e+03, 1.14039465e+03, 3.30414136e+03, 8.06380798e+02,
          4.45914258e+03, 4.14243262e+03, 0., 0., 1.81463809e+04, 0.,
          1.08187341e+03, 0., 8.06380798e+02, 1.44249780e+03, 0.,
          8.06380798e+02, 4.88638086e+03, 0., 1.44249780e+03,
          8.06380798e+02, 1.38527617e+04, 2.64141382e+03, 0., 0., 0., 0.,
          0., 0., 1.66991426e+04, 4.44453613e+03, 0., 8.06380798e+02,
          7.73276172e+03, 1.14039465e+03, 4.74663916e+03, 1.61276160e+03,
          2.64719043e+04, 7.69015625e+03, 0., 2.41914233e+03,
          1.18127617e+04, 1.14039465e+03, 4.74663916e+03, 1.61276160e+03 ]
      - [ 1.54655234e+04, 5.88703418e+03, 0., 1.61276160e+03, 0., 0., 0.,
          0., 8.06380798e+02, 3.60624451e+02, 0., 0., 0., 0., 0., 0.,
          1.58446660e+04, 6.36470068e+03, 0., 1.61276160e+03,
          4.88638086e+03, 0., 1.44249780e+03, 8.06380798e+02,
          9.55914258e+03, 5.64345215e+03, 0., 0., 1.56791426e+04,
          2.28078931e+03, 1.80312231e+03, 0., 0., 0., 0., 0., 0., 0., 0.,
          0., 1.71263809e+04, 2.64141382e+03, 0., 0., 0., 0., 0., 0.,
          1.42319043e+04, 7.38805322e+03, 0., 1.61276160e+03,
          1.26191426e+04, 1.14039465e+03, 7.69015625e+03, 3.22552319e+03,
          2.48110469e+04, 9.97094531e+03, 1.14039465e+03, 2.41914233e+03,
          9.04914258e+03, 2.28078931e+03, 6.60828271e+03, 2.41914233e+03 ]
      - [ 0., 3.60624451e+02, 0., 8.06380798e+02, 0., 0., 0., 0., 0., 0.,
          0., 0., 0., 0., 0., 0., 2.80365703e+04, 1.81972891e+04,
          1.14039465e+03, 1.61276160e+03, 3570., 0., 2.16374683e+03, 0.,
          1.00691426e+04, 4.50305713e+03, 0., 0., 1.56791426e+04,
          2.28078931e+03, 1.80312231e+03, 0., 0., 0., 0., 0.,
          8.06380798e+02, 0., 3.60624451e+02, 0., 0., 0., 0., 0., 0., 0.,
          0., 0., 1.54655234e+04, 5.88703418e+03, 0., 1.61276160e+03,
          1.13855234e+04, 2.28078931e+03, 9.13265430e+03, 4.03190405e+03,
          4.07519023e+04, 9.24969629e+03, 1.14039465e+03, 1.61276160e+03,
          4.88638086e+03, 1.14039465e+03, 3.30414136e+03, 8.06380798e+02 ]
      - [ 0., 3.60624451e+02, 0., 8.06380798e+02, 0., 0., 0., 0., 0., 0.,
          0., 0., 0., 0., 0., 0., 2.84638086e+04, 2.13843887e+04, 0.,
          1.61276160e+03, 6.71276172e+03, 0., 7.21248901e+02, 0.,
          1.01519043e+04, 7.44657422e+03, 0., 8.06380798e+02,
          1.56791426e+04, 2.28078931e+03, 1.80312231e+03, 0., 0., 0., 0.,
          0., 2.84638086e+03, 0., 3.60624451e+02, 0., 0., 0., 0., 0., 0.,
          0., 0., 0., 1.99727617e+04, 3.24562012e+03, 1.14039465e+03,
          2.41914233e+03, 1.54655234e+04, 2.28078931e+03, 7.63163477e+03,
          3.22552319e+03, 4.05382852e+04, 1.06336729e+04, 1.14039465e+03,
          3.22552319e+03, 1.10063809e+04, 0., 1.44249780e+03,
          8.06380798e+02 ]
      - [ 2.84638086e+03, 1.44249780e+03, 0., 8.06380798e+02, 0., 0., 0.,
          0., 0., 0., 0., 0., 0., 0., 0., 0., 2.82501895e+04,
          1.74175195e+04, 0., 3.22552319e+03, 4.88638086e+03, 0.,
          1.80312231e+03, 0., 1.27019043e+04, 6.36470068e+03, 0., 0.,
          1.86563809e+04, 0., 1.08187341e+03, 0., 0., 0., 0., 0.,
          2.41914233e+03, 2.28078931e+03, 2.16374683e+03, 8.06380798e+02,
          0., 0., 0., 0., 0., 0., 0., 0., 2.40527617e+04, 4.74663916e+03,
          1.14039465e+03, 1.61276160e+03, 1.46591426e+04, 1.14039465e+03,
          6.18913721e+03, 2.41914233e+03, 4.46182852e+04, 8.77202930e+03,
          0., 3.22552319e+03, 1.30463809e+04, 0., 1.44249780e+03,
          8.06380798e+02 ]
      - [ 0., 0., 0., 0., 0., 0., 0., 0., 0., 0., 0., 0., 0., 0., 0., 0.,
          4.45914258e+03, 1.74855391e+04, 0., 0., 0., 0., 0., 0., 0., 0.,
          0., 0., 0., 0., 1.74855391e+04, 2.41914233e+03, 0., 0., 0., 0.,
          0., 0., 0., 0., 0., 0., 0., 0., 0., 0., 0., 0., 0.,
          1.19006074e+04, 1.14039465e+03, 8.06380798e+02, 2.87255234e+04,
          1.14039465e+03, 1.66472461e+04, 2.41914233e+03, 1.91182852e+04,
          2.22906992e+04, 3.42118408e+03, 3.22552319e+03, 1.94627617e+04,
          2.28078931e+03, 1.23782744e+04, 1.61276160e+03 ]
      - [ 2.41914233e+03, 1.74855391e+04, 0., 0., 0., 0., 0., 0., 0., 0.,
          0., 0., 0., 0., 0., 0., 0., 0., 0., 0., 0., 0., 0., 0., 0., 0.,
          0., 0., 0., 0., 1.76025801e+04, 4.03190405e+03, 2040.,
          4.32749365e+03, 0., 0., 2.58791426e+04, 0., 1.80312231e+03,
          1.61276160e+03, 8.62190430e+03, 1.02730488e+04, 0.,
          1.61276160e+03, 0., 0., 0., 0., 0., 0., 0., 0., 0., 0.,
          1.45420215e+04, 1.61276160e+03, 8.53914258e+03, 8.05078076e+03,
          2.28078931e+03, 2.41914233e+03, 2.32463809e+04, 1.14039465e+03,
          1.20176494e+04, 1.61276160e+03 ]
      - [ 0., 0., 0., 0., 0., 0., 0., 0., 0., 0., 0., 0., 0., 0., 0., 0.,
          3.65276172e+03, 1.30995234e+04, 0., 0., 0., 0., 0., 0., 0., 0.,
          0., 0., 0., 0., 1.32750869e+04, 4.03190405e+03, 10200., 0., 0.,
          0., 0., 0., 0., 0., 0., 0., 0., 0., 0., 0., 0., 0.,
          3.38255234e+04, 1.31580449e+04, 0., 8.06380798e+02,
          2.05655234e+04, 1.14039465e+03, 1.54973555e+04, 6.45104639e+03,
          1.88219043e+04, 1.83238301e+04, 2.28078931e+03, 1.61276160e+03,
          1.51691426e+04, 2.28078931e+03, 1.34601475e+04, 1.61276160e+03 ]
      - [ 0., 0., 0., 0., 0., 0., 0., 0., 0., 0., 0., 0., 0., 0., 0., 0.,
          2.41914233e+03, 1.46005420e+04, 0., 0., 0., 0., 0., 0., 0., 0.,
          0., 0., 0., 0., 1.46590635e+04, 3.22552319e+03, 10200., 0., 0.,
          0., 0., 0., 0., 0., 0., 0., 0., 0., 0., 0., 0., 0.,
          3.22127617e+04, 1.20176494e+04, 1.14039465e+03, 8.06380798e+02,
          2.07791426e+04, 0., 1.61015615e+04, 5.64466553e+03,
          2.19646660e+04, 1.47175850e+04, 0., 1.61276160e+03,
          2.17163809e+04, 0., 1.28559414e+04, 3.22552319e+03 ]
      - [ 0., 0., 0., 0., 0., 0., 0., 0., 0., 0., 0., 0., 0., 0., 0., 0.,
          2040., 2.16374688e+04, 0., 0., 0., 0., 0., 0., 0., 0., 0., 0.,
          0., 0., 2.16374688e+04, 0., 0., 4.68811816e+03, 1.14039465e+03,
          8.06380798e+02, 4.88638086e+03, 0., 1.44249780e+03,
          8.06380798e+02, 2040., 0., 0., 0., 0., 0., 0., 0.,
          9.77276172e+03, 5.76999121e+03, 2.28078931e+03, 1.61276160e+03,
          1.72919043e+04, 2.28078931e+03, 1.26803779e+04, 2.41914233e+03,
          1.60582852e+04, 1.57409365e+04, 2.28078931e+03, 4.03190405e+03,
